<neuralNetwork>
    <neuron name = "0" type = "sensor" linkName = "1" />
    <neuron name = "1" type = "sensor" linkName = "3" />
    <neuron name = "2" type = "sensor" linkName = "4" />
    <neuron name = "3" type = "sensor" linkName = "5" />
    <neuron name = "4" type = "sensor" linkName = "7" />
    <neuron name = "5" type = "sensor" linkName = "9" />
    <neuron name = "6" type = "sensor" linkName = "11" />
    <neuron name = "7" type = "sensor" linkName = "12" />
    <neuron name = "8" type = "sensor" linkName = "14" />
    <neuron name = "9" type = "sensor" linkName = "19" />
    <neuron name = "10" type = "sensor" linkName = "21" />
    <neuron name = "11" type = "sensor" linkName = "24" />
    <neuron name = "12" type = "sensor" linkName = "28" />
    <neuron name = "13" type = "sensor" linkName = "29" />
    <neuron name = "14" type = "sensor" linkName = "30" />
    <neuron name = "15" type = "sensor" linkName = "31" />
    <neuron name = "16" type = "sensor" linkName = "36" />
    <neuron name = "17" type = "sensor" linkName = "37" />
    <neuron name = "18" type = "sensor" linkName = "40" />
    <neuron name = "19" type = "sensor" linkName = "43" />
    <neuron name = "20" type = "sensor" linkName = "44" />
    <neuron name = "21" type = "sensor" linkName = "47" />
    <neuron name = "22" type = "sensor" linkName = "48" />
    <neuron name = "23" type = "sensor" linkName = "49" />
    <neuron name = "24" type = "sensor" linkName = "50" />
    <neuron name = "25" type = "sensor" linkName = "54" />
    <neuron name = "26" type = "motor"  jointName = "0_1" />
    <neuron name = "27" type = "motor"  jointName = "1_2" />
    <neuron name = "28" type = "motor"  jointName = "2_3" />
    <neuron name = "29" type = "motor"  jointName = "3_4" />
    <neuron name = "30" type = "motor"  jointName = "4_5" />
    <neuron name = "31" type = "motor"  jointName = "5_6" />
    <neuron name = "32" type = "motor"  jointName = "6_7" />
    <neuron name = "33" type = "motor"  jointName = "7_8" />
    <neuron name = "34" type = "motor"  jointName = "8_9" />
    <neuron name = "35" type = "motor"  jointName = "9_10" />
    <neuron name = "36" type = "motor"  jointName = "10_11" />
    <neuron name = "37" type = "motor"  jointName = "2_12" />
    <neuron name = "38" type = "motor"  jointName = "2_13" />
    <neuron name = "39" type = "motor"  jointName = "2_14" />
    <neuron name = "40" type = "motor"  jointName = "2_15" />
    <neuron name = "41" type = "motor"  jointName = "2_16" />
    <neuron name = "42" type = "motor"  jointName = "4_17" />
    <neuron name = "43" type = "motor"  jointName = "4_18" />
    <neuron name = "44" type = "motor"  jointName = "4_19" />
    <neuron name = "45" type = "motor"  jointName = "4_20" />
    <neuron name = "46" type = "motor"  jointName = "5_21" />
    <neuron name = "47" type = "motor"  jointName = "5_22" />
    <neuron name = "48" type = "motor"  jointName = "5_23" />
    <neuron name = "49" type = "motor"  jointName = "5_24" />
    <neuron name = "50" type = "motor"  jointName = "5_25" />
    <neuron name = "51" type = "motor"  jointName = "5_26" />
    <neuron name = "52" type = "motor"  jointName = "5_27" />
    <neuron name = "53" type = "motor"  jointName = "6_28" />
    <neuron name = "54" type = "motor"  jointName = "6_29" />
    <neuron name = "55" type = "motor"  jointName = "6_30" />
    <neuron name = "56" type = "motor"  jointName = "6_31" />
    <neuron name = "57" type = "motor"  jointName = "6_32" />
    <neuron name = "58" type = "motor"  jointName = "7_33" />
    <neuron name = "59" type = "motor"  jointName = "7_34" />
    <neuron name = "60" type = "motor"  jointName = "7_35" />
    <neuron name = "61" type = "motor"  jointName = "7_36" />
    <neuron name = "62" type = "motor"  jointName = "7_37" />
    <neuron name = "63" type = "motor"  jointName = "8_38" />
    <neuron name = "64" type = "motor"  jointName = "8_39" />
    <neuron name = "65" type = "motor"  jointName = "8_40" />
    <neuron name = "66" type = "motor"  jointName = "8_41" />
    <neuron name = "67" type = "motor"  jointName = "8_42" />
    <neuron name = "68" type = "motor"  jointName = "8_43" />
    <neuron name = "69" type = "motor"  jointName = "8_44" />
    <neuron name = "70" type = "motor"  jointName = "9_45" />
    <neuron name = "71" type = "motor"  jointName = "9_46" />
    <neuron name = "72" type = "motor"  jointName = "9_47" />
    <neuron name = "73" type = "motor"  jointName = "9_48" />
    <neuron name = "74" type = "motor"  jointName = "9_49" />
    <neuron name = "75" type = "motor"  jointName = "9_50" />
    <neuron name = "76" type = "motor"  jointName = "9_51" />
    <neuron name = "77" type = "motor"  jointName = "10_52" />
    <neuron name = "78" type = "motor"  jointName = "10_53" />
    <neuron name = "79" type = "motor"  jointName = "10_54" />
    <synapse sourceNeuronName = "0" targetNeuronName = "0" weight = "0.4515804066450877" />
    <synapse sourceNeuronName = "0" targetNeuronName = "1" weight = "0.6286733708405804" />
    <synapse sourceNeuronName = "0" targetNeuronName = "2" weight = "0.533832360489711" />
    <synapse sourceNeuronName = "0" targetNeuronName = "3" weight = "0.6506846081552998" />
    <synapse sourceNeuronName = "0" targetNeuronName = "4" weight = "0.09088768148497672" />
    <synapse sourceNeuronName = "0" targetNeuronName = "5" weight = "0.9258083284523992" />
    <synapse sourceNeuronName = "0" targetNeuronName = "6" weight = "0.4926072401804644" />
    <synapse sourceNeuronName = "0" targetNeuronName = "7" weight = "0.36903661856642755" />
    <synapse sourceNeuronName = "0" targetNeuronName = "8" weight = "0.24990963758642992" />
    <synapse sourceNeuronName = "0" targetNeuronName = "9" weight = "0.6869091054839849" />
    <synapse sourceNeuronName = "0" targetNeuronName = "10" weight = "0.5270678733763038" />
    <synapse sourceNeuronName = "0" targetNeuronName = "11" weight = "0.8395401893525363" />
    <synapse sourceNeuronName = "0" targetNeuronName = "12" weight = "0.886027845282331" />
    <synapse sourceNeuronName = "0" targetNeuronName = "13" weight = "0.24620255990171014" />
    <synapse sourceNeuronName = "0" targetNeuronName = "14" weight = "0.567577735173197" />
    <synapse sourceNeuronName = "0" targetNeuronName = "15" weight = "0.35236743577310325" />
    <synapse sourceNeuronName = "0" targetNeuronName = "16" weight = "0.69655632910086" />
    <synapse sourceNeuronName = "0" targetNeuronName = "17" weight = "0.9252221613682512" />
    <synapse sourceNeuronName = "0" targetNeuronName = "18" weight = "0.5357589204870868" />
    <synapse sourceNeuronName = "0" targetNeuronName = "19" weight = "0.09895828147599994" />
    <synapse sourceNeuronName = "0" targetNeuronName = "20" weight = "0.7945421844074708" />
    <synapse sourceNeuronName = "0" targetNeuronName = "21" weight = "0.643820435346796" />
    <synapse sourceNeuronName = "0" targetNeuronName = "22" weight = "0.603650557665727" />
    <synapse sourceNeuronName = "0" targetNeuronName = "23" weight = "0.621129299543925" />
    <synapse sourceNeuronName = "0" targetNeuronName = "24" weight = "0.9276135021873917" />
    <synapse sourceNeuronName = "0" targetNeuronName = "25" weight = "0.19178506031828624" />
    <synapse sourceNeuronName = "0" targetNeuronName = "26" weight = "0.739782027061978" />
    <synapse sourceNeuronName = "0" targetNeuronName = "27" weight = "0.324696769994808" />
    <synapse sourceNeuronName = "0" targetNeuronName = "28" weight = "0.8817740581116879" />
    <synapse sourceNeuronName = "0" targetNeuronName = "29" weight = "0.44782983238759855" />
    <synapse sourceNeuronName = "0" targetNeuronName = "30" weight = "0.958432239329134" />
    <synapse sourceNeuronName = "0" targetNeuronName = "31" weight = "0.07033391813458578" />
    <synapse sourceNeuronName = "0" targetNeuronName = "32" weight = "0.48902003541473316" />
    <synapse sourceNeuronName = "0" targetNeuronName = "33" weight = "0.42003269919951447" />
    <synapse sourceNeuronName = "0" targetNeuronName = "34" weight = "0.5899917530107666" />
    <synapse sourceNeuronName = "0" targetNeuronName = "35" weight = "0.5421523914280318" />
    <synapse sourceNeuronName = "0" targetNeuronName = "36" weight = "0.9596557519357911" />
    <synapse sourceNeuronName = "0" targetNeuronName = "37" weight = "0.9317898856340278" />
    <synapse sourceNeuronName = "0" targetNeuronName = "38" weight = "0.6092508208933797" />
    <synapse sourceNeuronName = "0" targetNeuronName = "39" weight = "0.438294045812761" />
    <synapse sourceNeuronName = "0" targetNeuronName = "40" weight = "0.5991450287077182" />
    <synapse sourceNeuronName = "0" targetNeuronName = "41" weight = "0.14809796332477654" />
    <synapse sourceNeuronName = "0" targetNeuronName = "42" weight = "0.48061778641130415" />
    <synapse sourceNeuronName = "0" targetNeuronName = "43" weight = "0.5342465326134709" />
    <synapse sourceNeuronName = "0" targetNeuronName = "44" weight = "0.24285752411298567" />
    <synapse sourceNeuronName = "0" targetNeuronName = "45" weight = "0.37417990704905313" />
    <synapse sourceNeuronName = "0" targetNeuronName = "46" weight = "0.5875263011343366" />
    <synapse sourceNeuronName = "0" targetNeuronName = "47" weight = "0.5793458693948432" />
    <synapse sourceNeuronName = "0" targetNeuronName = "48" weight = "0.5449289962980104" />
    <synapse sourceNeuronName = "0" targetNeuronName = "49" weight = "0.1202731042695312" />
    <synapse sourceNeuronName = "0" targetNeuronName = "50" weight = "0.41394482267622634" />
    <synapse sourceNeuronName = "0" targetNeuronName = "51" weight = "0.8203682867421699" />
    <synapse sourceNeuronName = "0" targetNeuronName = "52" weight = "0.3450203958171669" />
    <synapse sourceNeuronName = "0" targetNeuronName = "53" weight = "0.5765153191200807" />
    <synapse sourceNeuronName = "1" targetNeuronName = "0" weight = "0.033300436797180644" />
    <synapse sourceNeuronName = "1" targetNeuronName = "1" weight = "0.9094510744828926" />
    <synapse sourceNeuronName = "1" targetNeuronName = "2" weight = "0.8330869829313378" />
    <synapse sourceNeuronName = "1" targetNeuronName = "3" weight = "0.19815555946274288" />
    <synapse sourceNeuronName = "1" targetNeuronName = "4" weight = "0.2853919846333036" />
    <synapse sourceNeuronName = "1" targetNeuronName = "5" weight = "0.9465870906737803" />
    <synapse sourceNeuronName = "1" targetNeuronName = "6" weight = "0.0004782750381829848" />
    <synapse sourceNeuronName = "1" targetNeuronName = "7" weight = "0.3205065014022359" />
    <synapse sourceNeuronName = "1" targetNeuronName = "8" weight = "0.1773991431875901" />
    <synapse sourceNeuronName = "1" targetNeuronName = "9" weight = "0.6343758866048027" />
    <synapse sourceNeuronName = "1" targetNeuronName = "10" weight = "0.2928734946387671" />
    <synapse sourceNeuronName = "1" targetNeuronName = "11" weight = "0.337919982505692" />
    <synapse sourceNeuronName = "1" targetNeuronName = "12" weight = "0.3185340397869961" />
    <synapse sourceNeuronName = "1" targetNeuronName = "13" weight = "0.39549316819540326" />
    <synapse sourceNeuronName = "1" targetNeuronName = "14" weight = "0.7261174910796736" />
    <synapse sourceNeuronName = "1" targetNeuronName = "15" weight = "0.5899896877339077" />
    <synapse sourceNeuronName = "1" targetNeuronName = "16" weight = "0.08996398888156054" />
    <synapse sourceNeuronName = "1" targetNeuronName = "17" weight = "0.15693301748280186" />
    <synapse sourceNeuronName = "1" targetNeuronName = "18" weight = "0.45034080846663826" />
    <synapse sourceNeuronName = "1" targetNeuronName = "19" weight = "0.11402409675012293" />
    <synapse sourceNeuronName = "1" targetNeuronName = "20" weight = "0.5896214277110768" />
    <synapse sourceNeuronName = "1" targetNeuronName = "21" weight = "0.5229970904238259" />
    <synapse sourceNeuronName = "1" targetNeuronName = "22" weight = "0.3521720599173178" />
    <synapse sourceNeuronName = "1" targetNeuronName = "23" weight = "0.0667260826310122" />
    <synapse sourceNeuronName = "1" targetNeuronName = "24" weight = "0.31453832740765864" />
    <synapse sourceNeuronName = "1" targetNeuronName = "25" weight = "0.5704518302809344" />
    <synapse sourceNeuronName = "1" targetNeuronName = "26" weight = "0.9123980872765576" />
    <synapse sourceNeuronName = "1" targetNeuronName = "27" weight = "0.14580978973839998" />
    <synapse sourceNeuronName = "1" targetNeuronName = "28" weight = "0.8334227522419977" />
    <synapse sourceNeuronName = "1" targetNeuronName = "29" weight = "0.24140470649357004" />
    <synapse sourceNeuronName = "1" targetNeuronName = "30" weight = "0.37423580100753706" />
    <synapse sourceNeuronName = "1" targetNeuronName = "31" weight = "0.6199456790512607" />
    <synapse sourceNeuronName = "1" targetNeuronName = "32" weight = "0.27366729964318226" />
    <synapse sourceNeuronName = "1" targetNeuronName = "33" weight = "0.18643020048715542" />
    <synapse sourceNeuronName = "1" targetNeuronName = "34" weight = "0.2704354374054331" />
    <synapse sourceNeuronName = "1" targetNeuronName = "35" weight = "0.9896883746820414" />
    <synapse sourceNeuronName = "1" targetNeuronName = "36" weight = "0.054357164537890856" />
    <synapse sourceNeuronName = "1" targetNeuronName = "37" weight = "0.2824121047007274" />
    <synapse sourceNeuronName = "1" targetNeuronName = "38" weight = "0.19428441962799725" />
    <synapse sourceNeuronName = "1" targetNeuronName = "39" weight = "0.5494366866989973" />
    <synapse sourceNeuronName = "1" targetNeuronName = "40" weight = "0.2941464913473545" />
    <synapse sourceNeuronName = "1" targetNeuronName = "41" weight = "0.6527935294877292" />
    <synapse sourceNeuronName = "1" targetNeuronName = "42" weight = "0.9514852811031265" />
    <synapse sourceNeuronName = "1" targetNeuronName = "43" weight = "0.7451733772827877" />
    <synapse sourceNeuronName = "1" targetNeuronName = "44" weight = "0.8397031613810702" />
    <synapse sourceNeuronName = "1" targetNeuronName = "45" weight = "0.41939760661067893" />
    <synapse sourceNeuronName = "1" targetNeuronName = "46" weight = "0.3780395042640452" />
    <synapse sourceNeuronName = "1" targetNeuronName = "47" weight = "0.6160334774999981" />
    <synapse sourceNeuronName = "1" targetNeuronName = "48" weight = "0.2635414843052667" />
    <synapse sourceNeuronName = "1" targetNeuronName = "49" weight = "0.2582090589069852" />
    <synapse sourceNeuronName = "1" targetNeuronName = "50" weight = "0.8103279020982043" />
    <synapse sourceNeuronName = "1" targetNeuronName = "51" weight = "0.03688284882451509" />
    <synapse sourceNeuronName = "1" targetNeuronName = "52" weight = "0.62534949144584" />
    <synapse sourceNeuronName = "1" targetNeuronName = "53" weight = "0.004713834198846412" />
    <synapse sourceNeuronName = "2" targetNeuronName = "0" weight = "0.5711077995744297" />
    <synapse sourceNeuronName = "2" targetNeuronName = "1" weight = "0.7842073295476664" />
    <synapse sourceNeuronName = "2" targetNeuronName = "2" weight = "0.8099955781508266" />
    <synapse sourceNeuronName = "2" targetNeuronName = "3" weight = "0.5214557834349822" />
    <synapse sourceNeuronName = "2" targetNeuronName = "4" weight = "0.6609669096757398" />
    <synapse sourceNeuronName = "2" targetNeuronName = "5" weight = "0.15905393141045887" />
    <synapse sourceNeuronName = "2" targetNeuronName = "6" weight = "0.8005778584082502" />
    <synapse sourceNeuronName = "2" targetNeuronName = "7" weight = "0.6226660653552666" />
    <synapse sourceNeuronName = "2" targetNeuronName = "8" weight = "0.4827696702846237" />
    <synapse sourceNeuronName = "2" targetNeuronName = "9" weight = "0.3175651754289571" />
    <synapse sourceNeuronName = "2" targetNeuronName = "10" weight = "0.11550839969582549" />
    <synapse sourceNeuronName = "2" targetNeuronName = "11" weight = "0.41496714365222065" />
    <synapse sourceNeuronName = "2" targetNeuronName = "12" weight = "0.9465696448723052" />
    <synapse sourceNeuronName = "2" targetNeuronName = "13" weight = "0.45394051074197717" />
    <synapse sourceNeuronName = "2" targetNeuronName = "14" weight = "0.06440522988299702" />
    <synapse sourceNeuronName = "2" targetNeuronName = "15" weight = "0.2070638315877833" />
    <synapse sourceNeuronName = "2" targetNeuronName = "16" weight = "0.9663615916994673" />
    <synapse sourceNeuronName = "2" targetNeuronName = "17" weight = "0.9398970318567526" />
    <synapse sourceNeuronName = "2" targetNeuronName = "18" weight = "0.6079546070329847" />
    <synapse sourceNeuronName = "2" targetNeuronName = "19" weight = "0.40443355147775983" />
    <synapse sourceNeuronName = "2" targetNeuronName = "20" weight = "0.1406694112140151" />
    <synapse sourceNeuronName = "2" targetNeuronName = "21" weight = "0.7494525851966414" />
    <synapse sourceNeuronName = "2" targetNeuronName = "22" weight = "0.45026011801876287" />
    <synapse sourceNeuronName = "2" targetNeuronName = "23" weight = "0.5408124948115302" />
    <synapse sourceNeuronName = "2" targetNeuronName = "24" weight = "0.7541527100205219" />
    <synapse sourceNeuronName = "2" targetNeuronName = "25" weight = "0.09531691438499168" />
    <synapse sourceNeuronName = "2" targetNeuronName = "26" weight = "0.3409928202408342" />
    <synapse sourceNeuronName = "2" targetNeuronName = "27" weight = "0.1896520179985851" />
    <synapse sourceNeuronName = "2" targetNeuronName = "28" weight = "0.8501868413710426" />
    <synapse sourceNeuronName = "2" targetNeuronName = "29" weight = "0.8530191454702776" />
    <synapse sourceNeuronName = "2" targetNeuronName = "30" weight = "0.5667735824039712" />
    <synapse sourceNeuronName = "2" targetNeuronName = "31" weight = "0.15681827185384611" />
    <synapse sourceNeuronName = "2" targetNeuronName = "32" weight = "0.76235599600327" />
    <synapse sourceNeuronName = "2" targetNeuronName = "33" weight = "0.6709901829392682" />
    <synapse sourceNeuronName = "2" targetNeuronName = "34" weight = "0.6099071700049368" />
    <synapse sourceNeuronName = "2" targetNeuronName = "35" weight = "0.8110826900768907" />
    <synapse sourceNeuronName = "2" targetNeuronName = "36" weight = "0.8601510459768476" />
    <synapse sourceNeuronName = "2" targetNeuronName = "37" weight = "0.7897086770983607" />
    <synapse sourceNeuronName = "2" targetNeuronName = "38" weight = "0.2848689072846624" />
    <synapse sourceNeuronName = "2" targetNeuronName = "39" weight = "0.4154482464098357" />
    <synapse sourceNeuronName = "2" targetNeuronName = "40" weight = "0.1261940651836807" />
    <synapse sourceNeuronName = "2" targetNeuronName = "41" weight = "0.1476538770761704" />
    <synapse sourceNeuronName = "2" targetNeuronName = "42" weight = "0.20718080118940163" />
    <synapse sourceNeuronName = "2" targetNeuronName = "43" weight = "0.22048003972763397" />
    <synapse sourceNeuronName = "2" targetNeuronName = "44" weight = "0.03665872547938687" />
    <synapse sourceNeuronName = "2" targetNeuronName = "45" weight = "0.8041161737396479" />
    <synapse sourceNeuronName = "2" targetNeuronName = "46" weight = "0.48957988334096036" />
    <synapse sourceNeuronName = "2" targetNeuronName = "47" weight = "0.398581746567502" />
    <synapse sourceNeuronName = "2" targetNeuronName = "48" weight = "0.8460905042989644" />
    <synapse sourceNeuronName = "2" targetNeuronName = "49" weight = "0.6929764441659655" />
    <synapse sourceNeuronName = "2" targetNeuronName = "50" weight = "0.014817508222942921" />
    <synapse sourceNeuronName = "2" targetNeuronName = "51" weight = "0.8684577495794595" />
    <synapse sourceNeuronName = "2" targetNeuronName = "52" weight = "0.5300750634233236" />
    <synapse sourceNeuronName = "2" targetNeuronName = "53" weight = "0.44870557077285167" />
    <synapse sourceNeuronName = "3" targetNeuronName = "0" weight = "0.3506526442330793" />
    <synapse sourceNeuronName = "3" targetNeuronName = "1" weight = "0.8442372923871895" />
    <synapse sourceNeuronName = "3" targetNeuronName = "2" weight = "0.11309241233641787" />
    <synapse sourceNeuronName = "3" targetNeuronName = "3" weight = "0.7130755299585936" />
    <synapse sourceNeuronName = "3" targetNeuronName = "4" weight = "0.1655956219743252" />
    <synapse sourceNeuronName = "3" targetNeuronName = "5" weight = "0.45431090293348975" />
    <synapse sourceNeuronName = "3" targetNeuronName = "6" weight = "0.3426960459380076" />
    <synapse sourceNeuronName = "3" targetNeuronName = "7" weight = "0.8602150484896419" />
    <synapse sourceNeuronName = "3" targetNeuronName = "8" weight = "0.9501819359945103" />
    <synapse sourceNeuronName = "3" targetNeuronName = "9" weight = "0.7150136974019727" />
    <synapse sourceNeuronName = "3" targetNeuronName = "10" weight = "0.525503045818765" />
    <synapse sourceNeuronName = "3" targetNeuronName = "11" weight = "0.8057354389125444" />
    <synapse sourceNeuronName = "3" targetNeuronName = "12" weight = "0.9848530305497601" />
    <synapse sourceNeuronName = "3" targetNeuronName = "13" weight = "0.8855010707881401" />
    <synapse sourceNeuronName = "3" targetNeuronName = "14" weight = "0.6243158450223453" />
    <synapse sourceNeuronName = "3" targetNeuronName = "15" weight = "0.5517078748976203" />
    <synapse sourceNeuronName = "3" targetNeuronName = "16" weight = "0.45326908660139" />
    <synapse sourceNeuronName = "3" targetNeuronName = "17" weight = "0.37835557459307045" />
    <synapse sourceNeuronName = "3" targetNeuronName = "18" weight = "0.5375164559720981" />
    <synapse sourceNeuronName = "3" targetNeuronName = "19" weight = "0.03824349362660262" />
    <synapse sourceNeuronName = "3" targetNeuronName = "20" weight = "0.45065720496137196" />
    <synapse sourceNeuronName = "3" targetNeuronName = "21" weight = "0.5928306979834272" />
    <synapse sourceNeuronName = "3" targetNeuronName = "22" weight = "0.005641623522732342" />
    <synapse sourceNeuronName = "3" targetNeuronName = "23" weight = "0.332019940680897" />
    <synapse sourceNeuronName = "3" targetNeuronName = "24" weight = "0.22450626148185104" />
    <synapse sourceNeuronName = "3" targetNeuronName = "25" weight = "0.7085331501537674" />
    <synapse sourceNeuronName = "3" targetNeuronName = "26" weight = "0.6208445471534066" />
    <synapse sourceNeuronName = "3" targetNeuronName = "27" weight = "0.9436680470843328" />
    <synapse sourceNeuronName = "3" targetNeuronName = "28" weight = "0.32157423328661094" />
    <synapse sourceNeuronName = "3" targetNeuronName = "29" weight = "0.9405438387520642" />
    <synapse sourceNeuronName = "3" targetNeuronName = "30" weight = "0.2701706035076966" />
    <synapse sourceNeuronName = "3" targetNeuronName = "31" weight = "0.1672086679371143" />
    <synapse sourceNeuronName = "3" targetNeuronName = "32" weight = "0.7753356409148783" />
    <synapse sourceNeuronName = "3" targetNeuronName = "33" weight = "0.2077053342156907" />
    <synapse sourceNeuronName = "3" targetNeuronName = "34" weight = "0.33348134997912926" />
    <synapse sourceNeuronName = "3" targetNeuronName = "35" weight = "0.9732492263515179" />
    <synapse sourceNeuronName = "3" targetNeuronName = "36" weight = "0.5704095810036545" />
    <synapse sourceNeuronName = "3" targetNeuronName = "37" weight = "0.5975452357900505" />
    <synapse sourceNeuronName = "3" targetNeuronName = "38" weight = "0.8806961531288037" />
    <synapse sourceNeuronName = "3" targetNeuronName = "39" weight = "0.46938641824315896" />
    <synapse sourceNeuronName = "3" targetNeuronName = "40" weight = "0.8454701868906213" />
    <synapse sourceNeuronName = "3" targetNeuronName = "41" weight = "0.8564515496648736" />
    <synapse sourceNeuronName = "3" targetNeuronName = "42" weight = "0.7416761996122518" />
    <synapse sourceNeuronName = "3" targetNeuronName = "43" weight = "0.2414234994447435" />
    <synapse sourceNeuronName = "3" targetNeuronName = "44" weight = "0.9811909875120022" />
    <synapse sourceNeuronName = "3" targetNeuronName = "45" weight = "0.004066589415452793" />
    <synapse sourceNeuronName = "3" targetNeuronName = "46" weight = "0.6754618270167232" />
    <synapse sourceNeuronName = "3" targetNeuronName = "47" weight = "0.5642448246053221" />
    <synapse sourceNeuronName = "3" targetNeuronName = "48" weight = "0.8282885832864788" />
    <synapse sourceNeuronName = "3" targetNeuronName = "49" weight = "0.9152150828120539" />
    <synapse sourceNeuronName = "3" targetNeuronName = "50" weight = "0.35418898189308934" />
    <synapse sourceNeuronName = "3" targetNeuronName = "51" weight = "0.036078154640747595" />
    <synapse sourceNeuronName = "3" targetNeuronName = "52" weight = "0.47016983433803994" />
    <synapse sourceNeuronName = "3" targetNeuronName = "53" weight = "0.23173006417813113" />
    <synapse sourceNeuronName = "4" targetNeuronName = "0" weight = "0.5270524774553282" />
    <synapse sourceNeuronName = "4" targetNeuronName = "1" weight = "0.15709786454706343" />
    <synapse sourceNeuronName = "4" targetNeuronName = "2" weight = "0.9119963240229781" />
    <synapse sourceNeuronName = "4" targetNeuronName = "3" weight = "0.5257030558870643" />
    <synapse sourceNeuronName = "4" targetNeuronName = "4" weight = "0.4822803576371937" />
    <synapse sourceNeuronName = "4" targetNeuronName = "5" weight = "0.35182827100956293" />
    <synapse sourceNeuronName = "4" targetNeuronName = "6" weight = "0.9935587168866786" />
    <synapse sourceNeuronName = "4" targetNeuronName = "7" weight = "0.46994873209531807" />
    <synapse sourceNeuronName = "4" targetNeuronName = "8" weight = "0.5457524069066708" />
    <synapse sourceNeuronName = "4" targetNeuronName = "9" weight = "0.3317901898248763" />
    <synapse sourceNeuronName = "4" targetNeuronName = "10" weight = "0.6552874741111882" />
    <synapse sourceNeuronName = "4" targetNeuronName = "11" weight = "0.89242229291922" />
    <synapse sourceNeuronName = "4" targetNeuronName = "12" weight = "0.6512270229160022" />
    <synapse sourceNeuronName = "4" targetNeuronName = "13" weight = "0.1903091733143767" />
    <synapse sourceNeuronName = "4" targetNeuronName = "14" weight = "0.3031381696185349" />
    <synapse sourceNeuronName = "4" targetNeuronName = "15" weight = "0.5316708341597954" />
    <synapse sourceNeuronName = "4" targetNeuronName = "16" weight = "0.3906223459623338" />
    <synapse sourceNeuronName = "4" targetNeuronName = "17" weight = "0.1945529776455086" />
    <synapse sourceNeuronName = "4" targetNeuronName = "18" weight = "0.49021375922667265" />
    <synapse sourceNeuronName = "4" targetNeuronName = "19" weight = "0.8355058225257351" />
    <synapse sourceNeuronName = "4" targetNeuronName = "20" weight = "0.911029433251185" />
    <synapse sourceNeuronName = "4" targetNeuronName = "21" weight = "0.7663045055438681" />
    <synapse sourceNeuronName = "4" targetNeuronName = "22" weight = "0.5874235975497688" />
    <synapse sourceNeuronName = "4" targetNeuronName = "23" weight = "0.8613674689258728" />
    <synapse sourceNeuronName = "4" targetNeuronName = "24" weight = "0.1779040048781554" />
    <synapse sourceNeuronName = "4" targetNeuronName = "25" weight = "0.6262443864528034" />
    <synapse sourceNeuronName = "4" targetNeuronName = "26" weight = "0.27119285556907247" />
    <synapse sourceNeuronName = "4" targetNeuronName = "27" weight = "0.12132232523516429" />
    <synapse sourceNeuronName = "4" targetNeuronName = "28" weight = "0.13722099702685153" />
    <synapse sourceNeuronName = "4" targetNeuronName = "29" weight = "0.19575810765570534" />
    <synapse sourceNeuronName = "4" targetNeuronName = "30" weight = "0.9717408193499529" />
    <synapse sourceNeuronName = "4" targetNeuronName = "31" weight = "0.7134009099406812" />
    <synapse sourceNeuronName = "4" targetNeuronName = "32" weight = "0.4087170009165686" />
    <synapse sourceNeuronName = "4" targetNeuronName = "33" weight = "0.21814194383745877" />
    <synapse sourceNeuronName = "4" targetNeuronName = "34" weight = "0.8745884531256554" />
    <synapse sourceNeuronName = "4" targetNeuronName = "35" weight = "0.15116553808099287" />
    <synapse sourceNeuronName = "4" targetNeuronName = "36" weight = "0.5687791819323537" />
    <synapse sourceNeuronName = "4" targetNeuronName = "37" weight = "0.5040041067363372" />
    <synapse sourceNeuronName = "4" targetNeuronName = "38" weight = "0.2263347628099125" />
    <synapse sourceNeuronName = "4" targetNeuronName = "39" weight = "0.6701844989888769" />
    <synapse sourceNeuronName = "4" targetNeuronName = "40" weight = "0.6169144310736352" />
    <synapse sourceNeuronName = "4" targetNeuronName = "41" weight = "0.3496498530291978" />
    <synapse sourceNeuronName = "4" targetNeuronName = "42" weight = "0.9034646043040534" />
    <synapse sourceNeuronName = "4" targetNeuronName = "43" weight = "0.5272541162430685" />
    <synapse sourceNeuronName = "4" targetNeuronName = "44" weight = "0.4820215295295456" />
    <synapse sourceNeuronName = "4" targetNeuronName = "45" weight = "0.5932004196346709" />
    <synapse sourceNeuronName = "4" targetNeuronName = "46" weight = "0.553830341137807" />
    <synapse sourceNeuronName = "4" targetNeuronName = "47" weight = "0.28163798252934236" />
    <synapse sourceNeuronName = "4" targetNeuronName = "48" weight = "0.285264690437671" />
    <synapse sourceNeuronName = "4" targetNeuronName = "49" weight = "0.2022686214481555" />
    <synapse sourceNeuronName = "4" targetNeuronName = "50" weight = "0.05534037110559209" />
    <synapse sourceNeuronName = "4" targetNeuronName = "51" weight = "0.7315500554954142" />
    <synapse sourceNeuronName = "4" targetNeuronName = "52" weight = "0.8719086673425717" />
    <synapse sourceNeuronName = "4" targetNeuronName = "53" weight = "0.9447487853503359" />
    <synapse sourceNeuronName = "5" targetNeuronName = "0" weight = "0.9348497107892443" />
    <synapse sourceNeuronName = "5" targetNeuronName = "1" weight = "0.4626176282594854" />
    <synapse sourceNeuronName = "5" targetNeuronName = "2" weight = "0.396450998154947" />
    <synapse sourceNeuronName = "5" targetNeuronName = "3" weight = "0.03917180678552079" />
    <synapse sourceNeuronName = "5" targetNeuronName = "4" weight = "0.23336099703680657" />
    <synapse sourceNeuronName = "5" targetNeuronName = "5" weight = "0.576162850007332" />
    <synapse sourceNeuronName = "5" targetNeuronName = "6" weight = "0.3095264804272161" />
    <synapse sourceNeuronName = "5" targetNeuronName = "7" weight = "0.9908270114171649" />
    <synapse sourceNeuronName = "5" targetNeuronName = "8" weight = "0.7655246557025701" />
    <synapse sourceNeuronName = "5" targetNeuronName = "9" weight = "0.8505597435532253" />
    <synapse sourceNeuronName = "5" targetNeuronName = "10" weight = "0.48081445055940863" />
    <synapse sourceNeuronName = "5" targetNeuronName = "11" weight = "0.6134636108743041" />
    <synapse sourceNeuronName = "5" targetNeuronName = "12" weight = "0.056192329695353926" />
    <synapse sourceNeuronName = "5" targetNeuronName = "13" weight = "0.8087966145118622" />
    <synapse sourceNeuronName = "5" targetNeuronName = "14" weight = "0.056863323737595284" />
    <synapse sourceNeuronName = "5" targetNeuronName = "15" weight = "0.9916505222633525" />
    <synapse sourceNeuronName = "5" targetNeuronName = "16" weight = "0.7204399929827853" />
    <synapse sourceNeuronName = "5" targetNeuronName = "17" weight = "0.5553542020214036" />
    <synapse sourceNeuronName = "5" targetNeuronName = "18" weight = "0.10906073821010576" />
    <synapse sourceNeuronName = "5" targetNeuronName = "19" weight = "0.5335806653029783" />
    <synapse sourceNeuronName = "5" targetNeuronName = "20" weight = "0.6617930448028227" />
    <synapse sourceNeuronName = "5" targetNeuronName = "21" weight = "0.9638780543994597" />
    <synapse sourceNeuronName = "5" targetNeuronName = "22" weight = "0.6985888713682344" />
    <synapse sourceNeuronName = "5" targetNeuronName = "23" weight = "0.710686439816967" />
    <synapse sourceNeuronName = "5" targetNeuronName = "24" weight = "0.1712171507329019" />
    <synapse sourceNeuronName = "5" targetNeuronName = "25" weight = "0.3635809933149422" />
    <synapse sourceNeuronName = "5" targetNeuronName = "26" weight = "0.9080451517829045" />
    <synapse sourceNeuronName = "5" targetNeuronName = "27" weight = "0.40350071951173927" />
    <synapse sourceNeuronName = "5" targetNeuronName = "28" weight = "0.15986581568115665" />
    <synapse sourceNeuronName = "5" targetNeuronName = "29" weight = "0.6924459385039909" />
    <synapse sourceNeuronName = "5" targetNeuronName = "30" weight = "0.8266950291404019" />
    <synapse sourceNeuronName = "5" targetNeuronName = "31" weight = "0.8158625774872198" />
    <synapse sourceNeuronName = "5" targetNeuronName = "32" weight = "0.2934764975901929" />
    <synapse sourceNeuronName = "5" targetNeuronName = "33" weight = "0.8974042465545683" />
    <synapse sourceNeuronName = "5" targetNeuronName = "34" weight = "0.8866252778271901" />
    <synapse sourceNeuronName = "5" targetNeuronName = "35" weight = "0.9213872968119943" />
    <synapse sourceNeuronName = "5" targetNeuronName = "36" weight = "0.6256769242078235" />
    <synapse sourceNeuronName = "5" targetNeuronName = "37" weight = "0.9741810345314861" />
    <synapse sourceNeuronName = "5" targetNeuronName = "38" weight = "0.398928010834242" />
    <synapse sourceNeuronName = "5" targetNeuronName = "39" weight = "0.5915496749184729" />
    <synapse sourceNeuronName = "5" targetNeuronName = "40" weight = "0.5470994120924979" />
    <synapse sourceNeuronName = "5" targetNeuronName = "41" weight = "0.11345077410898596" />
    <synapse sourceNeuronName = "5" targetNeuronName = "42" weight = "0.1423801404997882" />
    <synapse sourceNeuronName = "5" targetNeuronName = "43" weight = "0.9299458542399079" />
    <synapse sourceNeuronName = "5" targetNeuronName = "44" weight = "0.31064250523279646" />
    <synapse sourceNeuronName = "5" targetNeuronName = "45" weight = "0.6500187447580904" />
    <synapse sourceNeuronName = "5" targetNeuronName = "46" weight = "0.8311266794239479" />
    <synapse sourceNeuronName = "5" targetNeuronName = "47" weight = "0.3404989666310979" />
    <synapse sourceNeuronName = "5" targetNeuronName = "48" weight = "0.6563010076952782" />
    <synapse sourceNeuronName = "5" targetNeuronName = "49" weight = "0.30013528254736466" />
    <synapse sourceNeuronName = "5" targetNeuronName = "50" weight = "0.9886602168369907" />
    <synapse sourceNeuronName = "5" targetNeuronName = "51" weight = "0.6200360538977977" />
    <synapse sourceNeuronName = "5" targetNeuronName = "52" weight = "0.3622197364063101" />
    <synapse sourceNeuronName = "5" targetNeuronName = "53" weight = "0.419031651271203" />
    <synapse sourceNeuronName = "6" targetNeuronName = "0" weight = "0.12992667079717646" />
    <synapse sourceNeuronName = "6" targetNeuronName = "1" weight = "0.0528794928664571" />
    <synapse sourceNeuronName = "6" targetNeuronName = "2" weight = "0.517752723393421" />
    <synapse sourceNeuronName = "6" targetNeuronName = "3" weight = "0.2823545778465273" />
    <synapse sourceNeuronName = "6" targetNeuronName = "4" weight = "0.5611562178874786" />
    <synapse sourceNeuronName = "6" targetNeuronName = "5" weight = "0.4599144589223958" />
    <synapse sourceNeuronName = "6" targetNeuronName = "6" weight = "0.8799914390277516" />
    <synapse sourceNeuronName = "6" targetNeuronName = "7" weight = "0.7641530032865675" />
    <synapse sourceNeuronName = "6" targetNeuronName = "8" weight = "0.8000644977675638" />
    <synapse sourceNeuronName = "6" targetNeuronName = "9" weight = "0.2960492746282771" />
    <synapse sourceNeuronName = "6" targetNeuronName = "10" weight = "0.8030098080893128" />
    <synapse sourceNeuronName = "6" targetNeuronName = "11" weight = "0.6497086918866153" />
    <synapse sourceNeuronName = "6" targetNeuronName = "12" weight = "0.5870562710449969" />
    <synapse sourceNeuronName = "6" targetNeuronName = "13" weight = "0.9624858280709404" />
    <synapse sourceNeuronName = "6" targetNeuronName = "14" weight = "0.7453649730710169" />
    <synapse sourceNeuronName = "6" targetNeuronName = "15" weight = "0.7346347200311495" />
    <synapse sourceNeuronName = "6" targetNeuronName = "16" weight = "0.9787473777128353" />
    <synapse sourceNeuronName = "6" targetNeuronName = "17" weight = "0.632275880590937" />
    <synapse sourceNeuronName = "6" targetNeuronName = "18" weight = "0.9838588546266533" />
    <synapse sourceNeuronName = "6" targetNeuronName = "19" weight = "0.5554563783938534" />
    <synapse sourceNeuronName = "6" targetNeuronName = "20" weight = "0.9630543191156771" />
    <synapse sourceNeuronName = "6" targetNeuronName = "21" weight = "0.898245162802843" />
    <synapse sourceNeuronName = "6" targetNeuronName = "22" weight = "0.8198307875063187" />
    <synapse sourceNeuronName = "6" targetNeuronName = "23" weight = "0.28771981209692365" />
    <synapse sourceNeuronName = "6" targetNeuronName = "24" weight = "0.6317479233676908" />
    <synapse sourceNeuronName = "6" targetNeuronName = "25" weight = "0.6703498467525144" />
    <synapse sourceNeuronName = "6" targetNeuronName = "26" weight = "0.7978830652095987" />
    <synapse sourceNeuronName = "6" targetNeuronName = "27" weight = "0.827788224321552" />
    <synapse sourceNeuronName = "6" targetNeuronName = "28" weight = "0.06985482528825215" />
    <synapse sourceNeuronName = "6" targetNeuronName = "29" weight = "0.44752186790865145" />
    <synapse sourceNeuronName = "6" targetNeuronName = "30" weight = "0.7347778924221169" />
    <synapse sourceNeuronName = "6" targetNeuronName = "31" weight = "0.29210650983851116" />
    <synapse sourceNeuronName = "6" targetNeuronName = "32" weight = "0.9183149406471579" />
    <synapse sourceNeuronName = "6" targetNeuronName = "33" weight = "0.8119437958771581" />
    <synapse sourceNeuronName = "6" targetNeuronName = "34" weight = "0.8883450728108394" />
    <synapse sourceNeuronName = "6" targetNeuronName = "35" weight = "0.30214423603940943" />
    <synapse sourceNeuronName = "6" targetNeuronName = "36" weight = "0.7619492441901216" />
    <synapse sourceNeuronName = "6" targetNeuronName = "37" weight = "0.05567183798782949" />
    <synapse sourceNeuronName = "6" targetNeuronName = "38" weight = "0.07622750820707147" />
    <synapse sourceNeuronName = "6" targetNeuronName = "39" weight = "0.5032265465090582" />
    <synapse sourceNeuronName = "6" targetNeuronName = "40" weight = "0.25759164237316656" />
    <synapse sourceNeuronName = "6" targetNeuronName = "41" weight = "0.5410891723709655" />
    <synapse sourceNeuronName = "6" targetNeuronName = "42" weight = "0.4775079925978981" />
    <synapse sourceNeuronName = "6" targetNeuronName = "43" weight = "0.9245569584454756" />
    <synapse sourceNeuronName = "6" targetNeuronName = "44" weight = "0.6617827777092595" />
    <synapse sourceNeuronName = "6" targetNeuronName = "45" weight = "0.2561978086330623" />
    <synapse sourceNeuronName = "6" targetNeuronName = "46" weight = "0.3497462668743385" />
    <synapse sourceNeuronName = "6" targetNeuronName = "47" weight = "0.5558544171078653" />
    <synapse sourceNeuronName = "6" targetNeuronName = "48" weight = "0.22691803300762292" />
    <synapse sourceNeuronName = "6" targetNeuronName = "49" weight = "0.054376230421916416" />
    <synapse sourceNeuronName = "6" targetNeuronName = "50" weight = "0.5668677017265865" />
    <synapse sourceNeuronName = "6" targetNeuronName = "51" weight = "0.487508161214278" />
    <synapse sourceNeuronName = "6" targetNeuronName = "52" weight = "0.15541020872330213" />
    <synapse sourceNeuronName = "6" targetNeuronName = "53" weight = "0.9579410998662209" />
    <synapse sourceNeuronName = "7" targetNeuronName = "0" weight = "0.9635486200885414" />
    <synapse sourceNeuronName = "7" targetNeuronName = "1" weight = "0.43689172098049667" />
    <synapse sourceNeuronName = "7" targetNeuronName = "2" weight = "0.8658291571422809" />
    <synapse sourceNeuronName = "7" targetNeuronName = "3" weight = "0.4584567276956787" />
    <synapse sourceNeuronName = "7" targetNeuronName = "4" weight = "0.2678630357165992" />
    <synapse sourceNeuronName = "7" targetNeuronName = "5" weight = "0.1771851854333868" />
    <synapse sourceNeuronName = "7" targetNeuronName = "6" weight = "0.786086762125109" />
    <synapse sourceNeuronName = "7" targetNeuronName = "7" weight = "0.4406514363579376" />
    <synapse sourceNeuronName = "7" targetNeuronName = "8" weight = "0.29350044699610656" />
    <synapse sourceNeuronName = "7" targetNeuronName = "9" weight = "0.6474222593124813" />
    <synapse sourceNeuronName = "7" targetNeuronName = "10" weight = "0.5425099206310341" />
    <synapse sourceNeuronName = "7" targetNeuronName = "11" weight = "0.7238617239004763" />
    <synapse sourceNeuronName = "7" targetNeuronName = "12" weight = "0.09099120701775743" />
    <synapse sourceNeuronName = "7" targetNeuronName = "13" weight = "0.989138989269725" />
    <synapse sourceNeuronName = "7" targetNeuronName = "14" weight = "0.5350924587825192" />
    <synapse sourceNeuronName = "7" targetNeuronName = "15" weight = "0.3132390855900995" />
    <synapse sourceNeuronName = "7" targetNeuronName = "16" weight = "0.39151140171953314" />
    <synapse sourceNeuronName = "7" targetNeuronName = "17" weight = "0.41964093186797746" />
    <synapse sourceNeuronName = "7" targetNeuronName = "18" weight = "0.4363579286625183" />
    <synapse sourceNeuronName = "7" targetNeuronName = "19" weight = "0.6071057620848561" />
    <synapse sourceNeuronName = "7" targetNeuronName = "20" weight = "0.7060301489953172" />
    <synapse sourceNeuronName = "7" targetNeuronName = "21" weight = "0.5141548332770162" />
    <synapse sourceNeuronName = "7" targetNeuronName = "22" weight = "0.4497012775359106" />
    <synapse sourceNeuronName = "7" targetNeuronName = "23" weight = "0.10704047633458114" />
    <synapse sourceNeuronName = "7" targetNeuronName = "24" weight = "0.3237973930619694" />
    <synapse sourceNeuronName = "7" targetNeuronName = "25" weight = "0.4590512155917327" />
    <synapse sourceNeuronName = "7" targetNeuronName = "26" weight = "0.9860228283069692" />
    <synapse sourceNeuronName = "7" targetNeuronName = "27" weight = "0.42531069021248424" />
    <synapse sourceNeuronName = "7" targetNeuronName = "28" weight = "0.468833729322636" />
    <synapse sourceNeuronName = "7" targetNeuronName = "29" weight = "0.773068441110311" />
    <synapse sourceNeuronName = "7" targetNeuronName = "30" weight = "0.263994294757374" />
    <synapse sourceNeuronName = "7" targetNeuronName = "31" weight = "0.05667293865837708" />
    <synapse sourceNeuronName = "7" targetNeuronName = "32" weight = "0.019241729267599927" />
    <synapse sourceNeuronName = "7" targetNeuronName = "33" weight = "0.27713333034031273" />
    <synapse sourceNeuronName = "7" targetNeuronName = "34" weight = "0.97473552183507" />
    <synapse sourceNeuronName = "7" targetNeuronName = "35" weight = "0.3839966678482384" />
    <synapse sourceNeuronName = "7" targetNeuronName = "36" weight = "0.7633724575460722" />
    <synapse sourceNeuronName = "7" targetNeuronName = "37" weight = "0.45449593474930194" />
    <synapse sourceNeuronName = "7" targetNeuronName = "38" weight = "0.5829417982885502" />
    <synapse sourceNeuronName = "7" targetNeuronName = "39" weight = "0.3902818650416311" />
    <synapse sourceNeuronName = "7" targetNeuronName = "40" weight = "0.8574117469429352" />
    <synapse sourceNeuronName = "7" targetNeuronName = "41" weight = "0.7677927906090001" />
    <synapse sourceNeuronName = "7" targetNeuronName = "42" weight = "0.8036686318403886" />
    <synapse sourceNeuronName = "7" targetNeuronName = "43" weight = "0.5816741914152982" />
    <synapse sourceNeuronName = "7" targetNeuronName = "44" weight = "0.6451819438159018" />
    <synapse sourceNeuronName = "7" targetNeuronName = "45" weight = "0.6609964817508749" />
    <synapse sourceNeuronName = "7" targetNeuronName = "46" weight = "0.6362065328212113" />
    <synapse sourceNeuronName = "7" targetNeuronName = "47" weight = "0.3064901343400014" />
    <synapse sourceNeuronName = "7" targetNeuronName = "48" weight = "0.9389497106977177" />
    <synapse sourceNeuronName = "7" targetNeuronName = "49" weight = "0.5594951853733235" />
    <synapse sourceNeuronName = "7" targetNeuronName = "50" weight = "0.11745501704045569" />
    <synapse sourceNeuronName = "7" targetNeuronName = "51" weight = "0.7159553093864275" />
    <synapse sourceNeuronName = "7" targetNeuronName = "52" weight = "0.9956830904209154" />
    <synapse sourceNeuronName = "7" targetNeuronName = "53" weight = "0.46519582209599886" />
    <synapse sourceNeuronName = "8" targetNeuronName = "0" weight = "0.8824649208087411" />
    <synapse sourceNeuronName = "8" targetNeuronName = "1" weight = "0.6845936792112267" />
    <synapse sourceNeuronName = "8" targetNeuronName = "2" weight = "0.4229513818953805" />
    <synapse sourceNeuronName = "8" targetNeuronName = "3" weight = "0.3271763900315595" />
    <synapse sourceNeuronName = "8" targetNeuronName = "4" weight = "0.4970441492679729" />
    <synapse sourceNeuronName = "8" targetNeuronName = "5" weight = "0.4834863181379354" />
    <synapse sourceNeuronName = "8" targetNeuronName = "6" weight = "0.8846775534343312" />
    <synapse sourceNeuronName = "8" targetNeuronName = "7" weight = "0.611475271666447" />
    <synapse sourceNeuronName = "8" targetNeuronName = "8" weight = "0.8478436455987408" />
    <synapse sourceNeuronName = "8" targetNeuronName = "9" weight = "0.8423972493613338" />
    <synapse sourceNeuronName = "8" targetNeuronName = "10" weight = "0.8787428676243432" />
    <synapse sourceNeuronName = "8" targetNeuronName = "11" weight = "0.6141320920413734" />
    <synapse sourceNeuronName = "8" targetNeuronName = "12" weight = "0.6633476642343522" />
    <synapse sourceNeuronName = "8" targetNeuronName = "13" weight = "0.8865941157504211" />
    <synapse sourceNeuronName = "8" targetNeuronName = "14" weight = "0.658244809592287" />
    <synapse sourceNeuronName = "8" targetNeuronName = "15" weight = "0.21414368780585047" />
    <synapse sourceNeuronName = "8" targetNeuronName = "16" weight = "0.7124468381323603" />
    <synapse sourceNeuronName = "8" targetNeuronName = "17" weight = "0.3332753737972237" />
    <synapse sourceNeuronName = "8" targetNeuronName = "18" weight = "0.3468031256047701" />
    <synapse sourceNeuronName = "8" targetNeuronName = "19" weight = "0.9861833659110132" />
    <synapse sourceNeuronName = "8" targetNeuronName = "20" weight = "0.180442389480993" />
    <synapse sourceNeuronName = "8" targetNeuronName = "21" weight = "0.20251587195181997" />
    <synapse sourceNeuronName = "8" targetNeuronName = "22" weight = "0.19748380866659387" />
    <synapse sourceNeuronName = "8" targetNeuronName = "23" weight = "0.4745789443704239" />
    <synapse sourceNeuronName = "8" targetNeuronName = "24" weight = "0.7910942285470641" />
    <synapse sourceNeuronName = "8" targetNeuronName = "25" weight = "0.02309271374503641" />
    <synapse sourceNeuronName = "8" targetNeuronName = "26" weight = "0.5608759065626229" />
    <synapse sourceNeuronName = "8" targetNeuronName = "27" weight = "0.5946016992408218" />
    <synapse sourceNeuronName = "8" targetNeuronName = "28" weight = "0.3667260256561615" />
    <synapse sourceNeuronName = "8" targetNeuronName = "29" weight = "0.5562712951805202" />
    <synapse sourceNeuronName = "8" targetNeuronName = "30" weight = "0.4870495950366096" />
    <synapse sourceNeuronName = "8" targetNeuronName = "31" weight = "0.8946663299275953" />
    <synapse sourceNeuronName = "8" targetNeuronName = "32" weight = "0.61281021818299" />
    <synapse sourceNeuronName = "8" targetNeuronName = "33" weight = "0.7446503824705464" />
    <synapse sourceNeuronName = "8" targetNeuronName = "34" weight = "0.10221452517690655" />
    <synapse sourceNeuronName = "8" targetNeuronName = "35" weight = "0.5395407648613217" />
    <synapse sourceNeuronName = "8" targetNeuronName = "36" weight = "0.40606620679482475" />
    <synapse sourceNeuronName = "8" targetNeuronName = "37" weight = "0.4872578124596795" />
    <synapse sourceNeuronName = "8" targetNeuronName = "38" weight = "0.9162329850622632" />
    <synapse sourceNeuronName = "8" targetNeuronName = "39" weight = "0.8752405547221286" />
    <synapse sourceNeuronName = "8" targetNeuronName = "40" weight = "0.3667418123329311" />
    <synapse sourceNeuronName = "8" targetNeuronName = "41" weight = "0.6562821308252175" />
    <synapse sourceNeuronName = "8" targetNeuronName = "42" weight = "0.7003851113449886" />
    <synapse sourceNeuronName = "8" targetNeuronName = "43" weight = "0.12961291959667598" />
    <synapse sourceNeuronName = "8" targetNeuronName = "44" weight = "0.5231549340806089" />
    <synapse sourceNeuronName = "8" targetNeuronName = "45" weight = "0.6620892752553322" />
    <synapse sourceNeuronName = "8" targetNeuronName = "46" weight = "0.12194290152828069" />
    <synapse sourceNeuronName = "8" targetNeuronName = "47" weight = "0.09887713202654957" />
    <synapse sourceNeuronName = "8" targetNeuronName = "48" weight = "0.8306382902749538" />
    <synapse sourceNeuronName = "8" targetNeuronName = "49" weight = "0.22989718952117433" />
    <synapse sourceNeuronName = "8" targetNeuronName = "50" weight = "0.05456944535845665" />
    <synapse sourceNeuronName = "8" targetNeuronName = "51" weight = "0.175728582309011" />
    <synapse sourceNeuronName = "8" targetNeuronName = "52" weight = "0.23770267032340564" />
    <synapse sourceNeuronName = "8" targetNeuronName = "53" weight = "0.5364748240410108" />
    <synapse sourceNeuronName = "9" targetNeuronName = "0" weight = "0.9146855043560099" />
    <synapse sourceNeuronName = "9" targetNeuronName = "1" weight = "0.6746755115524956" />
    <synapse sourceNeuronName = "9" targetNeuronName = "2" weight = "0.07520996534442825" />
    <synapse sourceNeuronName = "9" targetNeuronName = "3" weight = "0.5770832315621995" />
    <synapse sourceNeuronName = "9" targetNeuronName = "4" weight = "0.8520763008270996" />
    <synapse sourceNeuronName = "9" targetNeuronName = "5" weight = "0.9370857510798473" />
    <synapse sourceNeuronName = "9" targetNeuronName = "6" weight = "0.8855495654415383" />
    <synapse sourceNeuronName = "9" targetNeuronName = "7" weight = "0.937559936769447" />
    <synapse sourceNeuronName = "9" targetNeuronName = "8" weight = "0.757070983711615" />
    <synapse sourceNeuronName = "9" targetNeuronName = "9" weight = "0.10800512506541249" />
    <synapse sourceNeuronName = "9" targetNeuronName = "10" weight = "0.6269091876565787" />
    <synapse sourceNeuronName = "9" targetNeuronName = "11" weight = "0.49893784878435576" />
    <synapse sourceNeuronName = "9" targetNeuronName = "12" weight = "0.545495480715599" />
    <synapse sourceNeuronName = "9" targetNeuronName = "13" weight = "0.7515833785615676" />
    <synapse sourceNeuronName = "9" targetNeuronName = "14" weight = "0.2630505969816155" />
    <synapse sourceNeuronName = "9" targetNeuronName = "15" weight = "0.9315709852046831" />
    <synapse sourceNeuronName = "9" targetNeuronName = "16" weight = "0.38541011992183105" />
    <synapse sourceNeuronName = "9" targetNeuronName = "17" weight = "0.5931213324439868" />
    <synapse sourceNeuronName = "9" targetNeuronName = "18" weight = "0.8161305534095746" />
    <synapse sourceNeuronName = "9" targetNeuronName = "19" weight = "0.4697202784313005" />
    <synapse sourceNeuronName = "9" targetNeuronName = "20" weight = "0.8519577628360926" />
    <synapse sourceNeuronName = "9" targetNeuronName = "21" weight = "0.04224434957541712" />
    <synapse sourceNeuronName = "9" targetNeuronName = "22" weight = "0.5996909546899013" />
    <synapse sourceNeuronName = "9" targetNeuronName = "23" weight = "0.8060685506566428" />
    <synapse sourceNeuronName = "9" targetNeuronName = "24" weight = "0.9249256471066826" />
    <synapse sourceNeuronName = "9" targetNeuronName = "25" weight = "0.45358052130660065" />
    <synapse sourceNeuronName = "9" targetNeuronName = "26" weight = "0.15141030698564562" />
    <synapse sourceNeuronName = "9" targetNeuronName = "27" weight = "0.3617042783408255" />
    <synapse sourceNeuronName = "9" targetNeuronName = "28" weight = "0.9038731064678084" />
    <synapse sourceNeuronName = "9" targetNeuronName = "29" weight = "0.2564891752816034" />
    <synapse sourceNeuronName = "9" targetNeuronName = "30" weight = "0.1271651464352308" />
    <synapse sourceNeuronName = "9" targetNeuronName = "31" weight = "0.39159205282636966" />
    <synapse sourceNeuronName = "9" targetNeuronName = "32" weight = "0.07574206486727075" />
    <synapse sourceNeuronName = "9" targetNeuronName = "33" weight = "0.04748379769049216" />
    <synapse sourceNeuronName = "9" targetNeuronName = "34" weight = "0.2810952594308537" />
    <synapse sourceNeuronName = "9" targetNeuronName = "35" weight = "0.8170732540146703" />
    <synapse sourceNeuronName = "9" targetNeuronName = "36" weight = "0.9237913389511582" />
    <synapse sourceNeuronName = "9" targetNeuronName = "37" weight = "0.6272253771566432" />
    <synapse sourceNeuronName = "9" targetNeuronName = "38" weight = "0.05362098066743426" />
    <synapse sourceNeuronName = "9" targetNeuronName = "39" weight = "0.3572668883675494" />
    <synapse sourceNeuronName = "9" targetNeuronName = "40" weight = "0.46849935637775275" />
    <synapse sourceNeuronName = "9" targetNeuronName = "41" weight = "0.7811525195578235" />
    <synapse sourceNeuronName = "9" targetNeuronName = "42" weight = "0.09882295894428594" />
    <synapse sourceNeuronName = "9" targetNeuronName = "43" weight = "0.18449080658073458" />
    <synapse sourceNeuronName = "9" targetNeuronName = "44" weight = "0.9998413606712497" />
    <synapse sourceNeuronName = "9" targetNeuronName = "45" weight = "0.4223410611361462" />
    <synapse sourceNeuronName = "9" targetNeuronName = "46" weight = "0.12527616321410895" />
    <synapse sourceNeuronName = "9" targetNeuronName = "47" weight = "0.4617859112356726" />
    <synapse sourceNeuronName = "9" targetNeuronName = "48" weight = "0.6057396351314602" />
    <synapse sourceNeuronName = "9" targetNeuronName = "49" weight = "0.08618755512319753" />
    <synapse sourceNeuronName = "9" targetNeuronName = "50" weight = "0.20720628052344603" />
    <synapse sourceNeuronName = "9" targetNeuronName = "51" weight = "0.8073536874719406" />
    <synapse sourceNeuronName = "9" targetNeuronName = "52" weight = "0.19539796091863304" />
    <synapse sourceNeuronName = "9" targetNeuronName = "53" weight = "0.3060336599448976" />
    <synapse sourceNeuronName = "10" targetNeuronName = "0" weight = "0.37707911494171764" />
    <synapse sourceNeuronName = "10" targetNeuronName = "1" weight = "0.5825924809289632" />
    <synapse sourceNeuronName = "10" targetNeuronName = "2" weight = "0.8110170565452244" />
    <synapse sourceNeuronName = "10" targetNeuronName = "3" weight = "0.6718350069938342" />
    <synapse sourceNeuronName = "10" targetNeuronName = "4" weight = "0.8829779508140033" />
    <synapse sourceNeuronName = "10" targetNeuronName = "5" weight = "0.659617252057298" />
    <synapse sourceNeuronName = "10" targetNeuronName = "6" weight = "0.5023595228318972" />
    <synapse sourceNeuronName = "10" targetNeuronName = "7" weight = "0.9930705602879053" />
    <synapse sourceNeuronName = "10" targetNeuronName = "8" weight = "0.8156942829781557" />
    <synapse sourceNeuronName = "10" targetNeuronName = "9" weight = "0.24141805127277693" />
    <synapse sourceNeuronName = "10" targetNeuronName = "10" weight = "0.34359579736828116" />
    <synapse sourceNeuronName = "10" targetNeuronName = "11" weight = "0.9408163363059978" />
    <synapse sourceNeuronName = "10" targetNeuronName = "12" weight = "0.6305376010665404" />
    <synapse sourceNeuronName = "10" targetNeuronName = "13" weight = "0.5235241409276434" />
    <synapse sourceNeuronName = "10" targetNeuronName = "14" weight = "0.26447123012023344" />
    <synapse sourceNeuronName = "10" targetNeuronName = "15" weight = "0.6523777003012761" />
    <synapse sourceNeuronName = "10" targetNeuronName = "16" weight = "0.3798665971060562" />
    <synapse sourceNeuronName = "10" targetNeuronName = "17" weight = "0.3030791021834893" />
    <synapse sourceNeuronName = "10" targetNeuronName = "18" weight = "0.9520214126476475" />
    <synapse sourceNeuronName = "10" targetNeuronName = "19" weight = "0.005054064246557299" />
    <synapse sourceNeuronName = "10" targetNeuronName = "20" weight = "0.1822724799489649" />
    <synapse sourceNeuronName = "10" targetNeuronName = "21" weight = "0.5177291477284248" />
    <synapse sourceNeuronName = "10" targetNeuronName = "22" weight = "0.3847896718715984" />
    <synapse sourceNeuronName = "10" targetNeuronName = "23" weight = "0.8697239566733541" />
    <synapse sourceNeuronName = "10" targetNeuronName = "24" weight = "0.39815282161998755" />
    <synapse sourceNeuronName = "10" targetNeuronName = "25" weight = "0.7038928342241653" />
    <synapse sourceNeuronName = "10" targetNeuronName = "26" weight = "0.19715287158518247" />
    <synapse sourceNeuronName = "10" targetNeuronName = "27" weight = "0.1935600553368021" />
    <synapse sourceNeuronName = "10" targetNeuronName = "28" weight = "0.37687368730495663" />
    <synapse sourceNeuronName = "10" targetNeuronName = "29" weight = "0.34608502012167053" />
    <synapse sourceNeuronName = "10" targetNeuronName = "30" weight = "0.012059257551305325" />
    <synapse sourceNeuronName = "10" targetNeuronName = "31" weight = "0.09720734119707253" />
    <synapse sourceNeuronName = "10" targetNeuronName = "32" weight = "0.10745082309950804" />
    <synapse sourceNeuronName = "10" targetNeuronName = "33" weight = "0.14415988463974683" />
    <synapse sourceNeuronName = "10" targetNeuronName = "34" weight = "0.7368268901019662" />
    <synapse sourceNeuronName = "10" targetNeuronName = "35" weight = "0.1598719824816428" />
    <synapse sourceNeuronName = "10" targetNeuronName = "36" weight = "0.8078736038572509" />
    <synapse sourceNeuronName = "10" targetNeuronName = "37" weight = "0.2906420814754691" />
    <synapse sourceNeuronName = "10" targetNeuronName = "38" weight = "0.5549471032226507" />
    <synapse sourceNeuronName = "10" targetNeuronName = "39" weight = "0.9739437334531423" />
    <synapse sourceNeuronName = "10" targetNeuronName = "40" weight = "0.865690971364547" />
    <synapse sourceNeuronName = "10" targetNeuronName = "41" weight = "0.8087711663707792" />
    <synapse sourceNeuronName = "10" targetNeuronName = "42" weight = "0.8449591257993646" />
    <synapse sourceNeuronName = "10" targetNeuronName = "43" weight = "0.5620929974476512" />
    <synapse sourceNeuronName = "10" targetNeuronName = "44" weight = "0.25287590189226616" />
    <synapse sourceNeuronName = "10" targetNeuronName = "45" weight = "0.36060230704136875" />
    <synapse sourceNeuronName = "10" targetNeuronName = "46" weight = "0.2637790193092169" />
    <synapse sourceNeuronName = "10" targetNeuronName = "47" weight = "0.26596147789137614" />
    <synapse sourceNeuronName = "10" targetNeuronName = "48" weight = "0.963640479827701" />
    <synapse sourceNeuronName = "10" targetNeuronName = "49" weight = "0.685837995923205" />
    <synapse sourceNeuronName = "10" targetNeuronName = "50" weight = "0.10675179022761772" />
    <synapse sourceNeuronName = "10" targetNeuronName = "51" weight = "0.878444766358062" />
    <synapse sourceNeuronName = "10" targetNeuronName = "52" weight = "0.8483790449843372" />
    <synapse sourceNeuronName = "10" targetNeuronName = "53" weight = "0.23939041366242308" />
    <synapse sourceNeuronName = "11" targetNeuronName = "0" weight = "0.03907692101554239" />
    <synapse sourceNeuronName = "11" targetNeuronName = "1" weight = "0.5288561282041317" />
    <synapse sourceNeuronName = "11" targetNeuronName = "2" weight = "0.09766030244566637" />
    <synapse sourceNeuronName = "11" targetNeuronName = "3" weight = "0.13558835142860715" />
    <synapse sourceNeuronName = "11" targetNeuronName = "4" weight = "0.4400137768257607" />
    <synapse sourceNeuronName = "11" targetNeuronName = "5" weight = "0.4057721459931841" />
    <synapse sourceNeuronName = "11" targetNeuronName = "6" weight = "0.34187152174138125" />
    <synapse sourceNeuronName = "11" targetNeuronName = "7" weight = "0.48232434952698555" />
    <synapse sourceNeuronName = "11" targetNeuronName = "8" weight = "0.1750797984965078" />
    <synapse sourceNeuronName = "11" targetNeuronName = "9" weight = "0.7895127792171538" />
    <synapse sourceNeuronName = "11" targetNeuronName = "10" weight = "0.2914467414527777" />
    <synapse sourceNeuronName = "11" targetNeuronName = "11" weight = "0.8234194869815707" />
    <synapse sourceNeuronName = "11" targetNeuronName = "12" weight = "0.6535854088814852" />
    <synapse sourceNeuronName = "11" targetNeuronName = "13" weight = "0.9984378540166023" />
    <synapse sourceNeuronName = "11" targetNeuronName = "14" weight = "0.04115162220790469" />
    <synapse sourceNeuronName = "11" targetNeuronName = "15" weight = "0.6754753147962537" />
    <synapse sourceNeuronName = "11" targetNeuronName = "16" weight = "0.3537517499591818" />
    <synapse sourceNeuronName = "11" targetNeuronName = "17" weight = "0.2836212590576641" />
    <synapse sourceNeuronName = "11" targetNeuronName = "18" weight = "0.46320284301950576" />
    <synapse sourceNeuronName = "11" targetNeuronName = "19" weight = "0.28003424404810673" />
    <synapse sourceNeuronName = "11" targetNeuronName = "20" weight = "0.8300520680660401" />
    <synapse sourceNeuronName = "11" targetNeuronName = "21" weight = "0.7378411669983919" />
    <synapse sourceNeuronName = "11" targetNeuronName = "22" weight = "0.9455919793534259" />
    <synapse sourceNeuronName = "11" targetNeuronName = "23" weight = "0.7788883762265196" />
    <synapse sourceNeuronName = "11" targetNeuronName = "24" weight = "0.07690122174994785" />
    <synapse sourceNeuronName = "11" targetNeuronName = "25" weight = "0.20933088479628348" />
    <synapse sourceNeuronName = "11" targetNeuronName = "26" weight = "0.808789734899165" />
    <synapse sourceNeuronName = "11" targetNeuronName = "27" weight = "0.43131148558778976" />
    <synapse sourceNeuronName = "11" targetNeuronName = "28" weight = "0.6101324732230347" />
    <synapse sourceNeuronName = "11" targetNeuronName = "29" weight = "0.73947364852859" />
    <synapse sourceNeuronName = "11" targetNeuronName = "30" weight = "0.5807335705333025" />
    <synapse sourceNeuronName = "11" targetNeuronName = "31" weight = "0.9589293459926846" />
    <synapse sourceNeuronName = "11" targetNeuronName = "32" weight = "0.8813728294344402" />
    <synapse sourceNeuronName = "11" targetNeuronName = "33" weight = "0.9885049835747259" />
    <synapse sourceNeuronName = "11" targetNeuronName = "34" weight = "0.49411698337674914" />
    <synapse sourceNeuronName = "11" targetNeuronName = "35" weight = "0.8610487175882356" />
    <synapse sourceNeuronName = "11" targetNeuronName = "36" weight = "0.9780159634238018" />
    <synapse sourceNeuronName = "11" targetNeuronName = "37" weight = "0.17426376143784805" />
    <synapse sourceNeuronName = "11" targetNeuronName = "38" weight = "0.12190076655837079" />
    <synapse sourceNeuronName = "11" targetNeuronName = "39" weight = "0.707343844275367" />
    <synapse sourceNeuronName = "11" targetNeuronName = "40" weight = "0.47944598985366704" />
    <synapse sourceNeuronName = "11" targetNeuronName = "41" weight = "0.41690995954837795" />
    <synapse sourceNeuronName = "11" targetNeuronName = "42" weight = "0.878070161571078" />
    <synapse sourceNeuronName = "11" targetNeuronName = "43" weight = "0.9729783362319566" />
    <synapse sourceNeuronName = "11" targetNeuronName = "44" weight = "0.6130163614431604" />
    <synapse sourceNeuronName = "11" targetNeuronName = "45" weight = "0.769259361513661" />
    <synapse sourceNeuronName = "11" targetNeuronName = "46" weight = "0.9623372645444684" />
    <synapse sourceNeuronName = "11" targetNeuronName = "47" weight = "0.3059708609930606" />
    <synapse sourceNeuronName = "11" targetNeuronName = "48" weight = "0.7786969848842386" />
    <synapse sourceNeuronName = "11" targetNeuronName = "49" weight = "0.3707556335255685" />
    <synapse sourceNeuronName = "11" targetNeuronName = "50" weight = "0.5745044161178277" />
    <synapse sourceNeuronName = "11" targetNeuronName = "51" weight = "0.96555257387205" />
    <synapse sourceNeuronName = "11" targetNeuronName = "52" weight = "0.6465660016026753" />
    <synapse sourceNeuronName = "11" targetNeuronName = "53" weight = "0.4111535469346169" />
    <synapse sourceNeuronName = "12" targetNeuronName = "0" weight = "0.4985589642788306" />
    <synapse sourceNeuronName = "12" targetNeuronName = "1" weight = "0.3551882828638482" />
    <synapse sourceNeuronName = "12" targetNeuronName = "2" weight = "0.7963256860372427" />
    <synapse sourceNeuronName = "12" targetNeuronName = "3" weight = "0.8588722843922977" />
    <synapse sourceNeuronName = "12" targetNeuronName = "4" weight = "0.8830667511811033" />
    <synapse sourceNeuronName = "12" targetNeuronName = "5" weight = "0.05886879727695171" />
    <synapse sourceNeuronName = "12" targetNeuronName = "6" weight = "0.577264170931145" />
    <synapse sourceNeuronName = "12" targetNeuronName = "7" weight = "0.39528846404060136" />
    <synapse sourceNeuronName = "12" targetNeuronName = "8" weight = "0.8681885259390003" />
    <synapse sourceNeuronName = "12" targetNeuronName = "9" weight = "0.13802747411387994" />
    <synapse sourceNeuronName = "12" targetNeuronName = "10" weight = "0.02534624062559998" />
    <synapse sourceNeuronName = "12" targetNeuronName = "11" weight = "0.18983683572150944" />
    <synapse sourceNeuronName = "12" targetNeuronName = "12" weight = "0.589919347464865" />
    <synapse sourceNeuronName = "12" targetNeuronName = "13" weight = "0.6036394715414396" />
    <synapse sourceNeuronName = "12" targetNeuronName = "14" weight = "0.3096214556072546" />
    <synapse sourceNeuronName = "12" targetNeuronName = "15" weight = "0.23711723713124033" />
    <synapse sourceNeuronName = "12" targetNeuronName = "16" weight = "0.05062481822946441" />
    <synapse sourceNeuronName = "12" targetNeuronName = "17" weight = "0.9779376711939256" />
    <synapse sourceNeuronName = "12" targetNeuronName = "18" weight = "0.966235019472467" />
    <synapse sourceNeuronName = "12" targetNeuronName = "19" weight = "0.9188109568540253" />
    <synapse sourceNeuronName = "12" targetNeuronName = "20" weight = "0.566461476145768" />
    <synapse sourceNeuronName = "12" targetNeuronName = "21" weight = "0.053823940879517584" />
    <synapse sourceNeuronName = "12" targetNeuronName = "22" weight = "0.43489776073567576" />
    <synapse sourceNeuronName = "12" targetNeuronName = "23" weight = "0.639196879246163" />
    <synapse sourceNeuronName = "12" targetNeuronName = "24" weight = "0.4717214913600595" />
    <synapse sourceNeuronName = "12" targetNeuronName = "25" weight = "0.4187556384036848" />
    <synapse sourceNeuronName = "12" targetNeuronName = "26" weight = "0.9873903974194517" />
    <synapse sourceNeuronName = "12" targetNeuronName = "27" weight = "0.4512493724875378" />
    <synapse sourceNeuronName = "12" targetNeuronName = "28" weight = "0.1483865404769351" />
    <synapse sourceNeuronName = "12" targetNeuronName = "29" weight = "0.030240757371676086" />
    <synapse sourceNeuronName = "12" targetNeuronName = "30" weight = "0.24141769134209246" />
    <synapse sourceNeuronName = "12" targetNeuronName = "31" weight = "0.11362414709938595" />
    <synapse sourceNeuronName = "12" targetNeuronName = "32" weight = "0.2140892135352691" />
    <synapse sourceNeuronName = "12" targetNeuronName = "33" weight = "0.09086343298903277" />
    <synapse sourceNeuronName = "12" targetNeuronName = "34" weight = "0.6754850587803908" />
    <synapse sourceNeuronName = "12" targetNeuronName = "35" weight = "0.6724877450835673" />
    <synapse sourceNeuronName = "12" targetNeuronName = "36" weight = "0.12894624928201637" />
    <synapse sourceNeuronName = "12" targetNeuronName = "37" weight = "0.373545207883064" />
    <synapse sourceNeuronName = "12" targetNeuronName = "38" weight = "0.017398456393845296" />
    <synapse sourceNeuronName = "12" targetNeuronName = "39" weight = "0.054778568744003775" />
    <synapse sourceNeuronName = "12" targetNeuronName = "40" weight = "0.8087065524646363" />
    <synapse sourceNeuronName = "12" targetNeuronName = "41" weight = "0.27525008931611905" />
    <synapse sourceNeuronName = "12" targetNeuronName = "42" weight = "0.5591297055442622" />
    <synapse sourceNeuronName = "12" targetNeuronName = "43" weight = "0.7583470977929254" />
    <synapse sourceNeuronName = "12" targetNeuronName = "44" weight = "0.0376623594446267" />
    <synapse sourceNeuronName = "12" targetNeuronName = "45" weight = "0.7389053932683862" />
    <synapse sourceNeuronName = "12" targetNeuronName = "46" weight = "0.9801700681674806" />
    <synapse sourceNeuronName = "12" targetNeuronName = "47" weight = "0.9994840488199066" />
    <synapse sourceNeuronName = "12" targetNeuronName = "48" weight = "0.564096809698532" />
    <synapse sourceNeuronName = "12" targetNeuronName = "49" weight = "0.6602996188996748" />
    <synapse sourceNeuronName = "12" targetNeuronName = "50" weight = "0.5308240714299309" />
    <synapse sourceNeuronName = "12" targetNeuronName = "51" weight = "0.619847864433495" />
    <synapse sourceNeuronName = "12" targetNeuronName = "52" weight = "0.7223047146608633" />
    <synapse sourceNeuronName = "12" targetNeuronName = "53" weight = "0.6625725107276474" />
    <synapse sourceNeuronName = "13" targetNeuronName = "0" weight = "0.6948382013753732" />
    <synapse sourceNeuronName = "13" targetNeuronName = "1" weight = "0.8541535504884515" />
    <synapse sourceNeuronName = "13" targetNeuronName = "2" weight = "0.8157585119293196" />
    <synapse sourceNeuronName = "13" targetNeuronName = "3" weight = "0.21148494152109087" />
    <synapse sourceNeuronName = "13" targetNeuronName = "4" weight = "0.47043570942564916" />
    <synapse sourceNeuronName = "13" targetNeuronName = "5" weight = "0.9998719287440906" />
    <synapse sourceNeuronName = "13" targetNeuronName = "6" weight = "0.568101222139438" />
    <synapse sourceNeuronName = "13" targetNeuronName = "7" weight = "0.5797497834679705" />
    <synapse sourceNeuronName = "13" targetNeuronName = "8" weight = "0.12576243228455108" />
    <synapse sourceNeuronName = "13" targetNeuronName = "9" weight = "0.7391960716092633" />
    <synapse sourceNeuronName = "13" targetNeuronName = "10" weight = "0.08430935437144516" />
    <synapse sourceNeuronName = "13" targetNeuronName = "11" weight = "0.8654183242888493" />
    <synapse sourceNeuronName = "13" targetNeuronName = "12" weight = "0.882534223432746" />
    <synapse sourceNeuronName = "13" targetNeuronName = "13" weight = "0.7713812156762484" />
    <synapse sourceNeuronName = "13" targetNeuronName = "14" weight = "0.3595524851831706" />
    <synapse sourceNeuronName = "13" targetNeuronName = "15" weight = "0.5969187078918806" />
    <synapse sourceNeuronName = "13" targetNeuronName = "16" weight = "0.3510509444775872" />
    <synapse sourceNeuronName = "13" targetNeuronName = "17" weight = "0.6703954208059799" />
    <synapse sourceNeuronName = "13" targetNeuronName = "18" weight = "0.8491947052217492" />
    <synapse sourceNeuronName = "13" targetNeuronName = "19" weight = "0.201735014561781" />
    <synapse sourceNeuronName = "13" targetNeuronName = "20" weight = "0.90993717743729" />
    <synapse sourceNeuronName = "13" targetNeuronName = "21" weight = "0.3947753181145791" />
    <synapse sourceNeuronName = "13" targetNeuronName = "22" weight = "0.5879646474391871" />
    <synapse sourceNeuronName = "13" targetNeuronName = "23" weight = "0.9031500864635609" />
    <synapse sourceNeuronName = "13" targetNeuronName = "24" weight = "0.1304827245104332" />
    <synapse sourceNeuronName = "13" targetNeuronName = "25" weight = "0.42740493101360655" />
    <synapse sourceNeuronName = "13" targetNeuronName = "26" weight = "0.0030566426099427613" />
    <synapse sourceNeuronName = "13" targetNeuronName = "27" weight = "0.5474460296974234" />
    <synapse sourceNeuronName = "13" targetNeuronName = "28" weight = "0.9190314084241715" />
    <synapse sourceNeuronName = "13" targetNeuronName = "29" weight = "0.7016980622330369" />
    <synapse sourceNeuronName = "13" targetNeuronName = "30" weight = "0.14210053319820615" />
    <synapse sourceNeuronName = "13" targetNeuronName = "31" weight = "0.9015017202777814" />
    <synapse sourceNeuronName = "13" targetNeuronName = "32" weight = "0.8075429021702148" />
    <synapse sourceNeuronName = "13" targetNeuronName = "33" weight = "0.6338631199309509" />
    <synapse sourceNeuronName = "13" targetNeuronName = "34" weight = "0.27857305344516226" />
    <synapse sourceNeuronName = "13" targetNeuronName = "35" weight = "0.9913458138118509" />
    <synapse sourceNeuronName = "13" targetNeuronName = "36" weight = "0.4294282946105039" />
    <synapse sourceNeuronName = "13" targetNeuronName = "37" weight = "0.23731553467837208" />
    <synapse sourceNeuronName = "13" targetNeuronName = "38" weight = "0.0904466693183823" />
    <synapse sourceNeuronName = "13" targetNeuronName = "39" weight = "0.011877303132058814" />
    <synapse sourceNeuronName = "13" targetNeuronName = "40" weight = "0.7315884678382286" />
    <synapse sourceNeuronName = "13" targetNeuronName = "41" weight = "0.16510638761567797" />
    <synapse sourceNeuronName = "13" targetNeuronName = "42" weight = "0.6604593016057744" />
    <synapse sourceNeuronName = "13" targetNeuronName = "43" weight = "0.8035900795158697" />
    <synapse sourceNeuronName = "13" targetNeuronName = "44" weight = "0.21964221177987597" />
    <synapse sourceNeuronName = "13" targetNeuronName = "45" weight = "0.7687530129805873" />
    <synapse sourceNeuronName = "13" targetNeuronName = "46" weight = "0.11342405340902761" />
    <synapse sourceNeuronName = "13" targetNeuronName = "47" weight = "0.7426744373741403" />
    <synapse sourceNeuronName = "13" targetNeuronName = "48" weight = "0.056519595836503234" />
    <synapse sourceNeuronName = "13" targetNeuronName = "49" weight = "0.19185204329800176" />
    <synapse sourceNeuronName = "13" targetNeuronName = "50" weight = "0.5549001498794994" />
    <synapse sourceNeuronName = "13" targetNeuronName = "51" weight = "0.6424351582322856" />
    <synapse sourceNeuronName = "13" targetNeuronName = "52" weight = "0.08675088673254805" />
    <synapse sourceNeuronName = "13" targetNeuronName = "53" weight = "0.012149166816196155" />
    <synapse sourceNeuronName = "14" targetNeuronName = "0" weight = "0.9421358252052527" />
    <synapse sourceNeuronName = "14" targetNeuronName = "1" weight = "0.6305359178365307" />
    <synapse sourceNeuronName = "14" targetNeuronName = "2" weight = "0.2363719368475069" />
    <synapse sourceNeuronName = "14" targetNeuronName = "3" weight = "0.2980793601807953" />
    <synapse sourceNeuronName = "14" targetNeuronName = "4" weight = "0.5115078196371171" />
    <synapse sourceNeuronName = "14" targetNeuronName = "5" weight = "0.9314746830339653" />
    <synapse sourceNeuronName = "14" targetNeuronName = "6" weight = "0.11071332944937573" />
    <synapse sourceNeuronName = "14" targetNeuronName = "7" weight = "0.71339674232444" />
    <synapse sourceNeuronName = "14" targetNeuronName = "8" weight = "0.9950242143087537" />
    <synapse sourceNeuronName = "14" targetNeuronName = "9" weight = "0.8125578916893009" />
    <synapse sourceNeuronName = "14" targetNeuronName = "10" weight = "0.10291202365994345" />
    <synapse sourceNeuronName = "14" targetNeuronName = "11" weight = "0.7008706670403522" />
    <synapse sourceNeuronName = "14" targetNeuronName = "12" weight = "0.8804405102797752" />
    <synapse sourceNeuronName = "14" targetNeuronName = "13" weight = "0.9415250650278988" />
    <synapse sourceNeuronName = "14" targetNeuronName = "14" weight = "0.7039834385561369" />
    <synapse sourceNeuronName = "14" targetNeuronName = "15" weight = "0.8376508090819715" />
    <synapse sourceNeuronName = "14" targetNeuronName = "16" weight = "0.7035752815885513" />
    <synapse sourceNeuronName = "14" targetNeuronName = "17" weight = "0.09846814225672895" />
    <synapse sourceNeuronName = "14" targetNeuronName = "18" weight = "0.6921387346155687" />
    <synapse sourceNeuronName = "14" targetNeuronName = "19" weight = "0.18984602504179104" />
    <synapse sourceNeuronName = "14" targetNeuronName = "20" weight = "0.22332229992305452" />
    <synapse sourceNeuronName = "14" targetNeuronName = "21" weight = "0.9876191186921801" />
    <synapse sourceNeuronName = "14" targetNeuronName = "22" weight = "0.5448092783786792" />
    <synapse sourceNeuronName = "14" targetNeuronName = "23" weight = "0.16692833049390554" />
    <synapse sourceNeuronName = "14" targetNeuronName = "24" weight = "0.7350085705896358" />
    <synapse sourceNeuronName = "14" targetNeuronName = "25" weight = "0.6222234454404192" />
    <synapse sourceNeuronName = "14" targetNeuronName = "26" weight = "0.9115966922777428" />
    <synapse sourceNeuronName = "14" targetNeuronName = "27" weight = "0.5268536637440163" />
    <synapse sourceNeuronName = "14" targetNeuronName = "28" weight = "0.5277698254477422" />
    <synapse sourceNeuronName = "14" targetNeuronName = "29" weight = "0.4686477161689758" />
    <synapse sourceNeuronName = "14" targetNeuronName = "30" weight = "0.3135238319698641" />
    <synapse sourceNeuronName = "14" targetNeuronName = "31" weight = "0.0798544362381749" />
    <synapse sourceNeuronName = "14" targetNeuronName = "32" weight = "0.7670056436156388" />
    <synapse sourceNeuronName = "14" targetNeuronName = "33" weight = "0.43881719797800245" />
    <synapse sourceNeuronName = "14" targetNeuronName = "34" weight = "0.8108986824667495" />
    <synapse sourceNeuronName = "14" targetNeuronName = "35" weight = "0.8234828129347429" />
    <synapse sourceNeuronName = "14" targetNeuronName = "36" weight = "0.3391601656488997" />
    <synapse sourceNeuronName = "14" targetNeuronName = "37" weight = "0.6334861372302489" />
    <synapse sourceNeuronName = "14" targetNeuronName = "38" weight = "0.6681525892420267" />
    <synapse sourceNeuronName = "14" targetNeuronName = "39" weight = "0.9665716879033559" />
    <synapse sourceNeuronName = "14" targetNeuronName = "40" weight = "0.7343254472681614" />
    <synapse sourceNeuronName = "14" targetNeuronName = "41" weight = "0.8056087873152177" />
    <synapse sourceNeuronName = "14" targetNeuronName = "42" weight = "0.41052031686492974" />
    <synapse sourceNeuronName = "14" targetNeuronName = "43" weight = "0.21876112298879213" />
    <synapse sourceNeuronName = "14" targetNeuronName = "44" weight = "0.6285279497621941" />
    <synapse sourceNeuronName = "14" targetNeuronName = "45" weight = "0.5035610213319307" />
    <synapse sourceNeuronName = "14" targetNeuronName = "46" weight = "0.9531593806244956" />
    <synapse sourceNeuronName = "14" targetNeuronName = "47" weight = "0.42870005190577176" />
    <synapse sourceNeuronName = "14" targetNeuronName = "48" weight = "0.8920499581492193" />
    <synapse sourceNeuronName = "14" targetNeuronName = "49" weight = "0.6454256173820135" />
    <synapse sourceNeuronName = "14" targetNeuronName = "50" weight = "0.7430361263330268" />
    <synapse sourceNeuronName = "14" targetNeuronName = "51" weight = "0.5811213994429383" />
    <synapse sourceNeuronName = "14" targetNeuronName = "52" weight = "0.9397222001254576" />
    <synapse sourceNeuronName = "14" targetNeuronName = "53" weight = "0.9897138759075433" />
    <synapse sourceNeuronName = "15" targetNeuronName = "0" weight = "0.011909152626852104" />
    <synapse sourceNeuronName = "15" targetNeuronName = "1" weight = "0.40264955778085065" />
    <synapse sourceNeuronName = "15" targetNeuronName = "2" weight = "0.6173900415336496" />
    <synapse sourceNeuronName = "15" targetNeuronName = "3" weight = "0.9998177982767806" />
    <synapse sourceNeuronName = "15" targetNeuronName = "4" weight = "0.30841512802173754" />
    <synapse sourceNeuronName = "15" targetNeuronName = "5" weight = "0.206446094009491" />
    <synapse sourceNeuronName = "15" targetNeuronName = "6" weight = "0.8367431608241012" />
    <synapse sourceNeuronName = "15" targetNeuronName = "7" weight = "0.7321876572323437" />
    <synapse sourceNeuronName = "15" targetNeuronName = "8" weight = "0.17433121878974134" />
    <synapse sourceNeuronName = "15" targetNeuronName = "9" weight = "0.1302781547868579" />
    <synapse sourceNeuronName = "15" targetNeuronName = "10" weight = "0.9518873303750679" />
    <synapse sourceNeuronName = "15" targetNeuronName = "11" weight = "0.05580805927966681" />
    <synapse sourceNeuronName = "15" targetNeuronName = "12" weight = "0.9774880340583981" />
    <synapse sourceNeuronName = "15" targetNeuronName = "13" weight = "0.0875438782257576" />
    <synapse sourceNeuronName = "15" targetNeuronName = "14" weight = "0.34907947748345336" />
    <synapse sourceNeuronName = "15" targetNeuronName = "15" weight = "0.4818501938455303" />
    <synapse sourceNeuronName = "15" targetNeuronName = "16" weight = "0.09502395107931028" />
    <synapse sourceNeuronName = "15" targetNeuronName = "17" weight = "0.2944481890311438" />
    <synapse sourceNeuronName = "15" targetNeuronName = "18" weight = "0.94555793307224" />
    <synapse sourceNeuronName = "15" targetNeuronName = "19" weight = "0.8332894600269432" />
    <synapse sourceNeuronName = "15" targetNeuronName = "20" weight = "0.004514674882050929" />
    <synapse sourceNeuronName = "15" targetNeuronName = "21" weight = "0.00040091948453324644" />
    <synapse sourceNeuronName = "15" targetNeuronName = "22" weight = "0.5482415391574996" />
    <synapse sourceNeuronName = "15" targetNeuronName = "23" weight = "0.16181618758314265" />
    <synapse sourceNeuronName = "15" targetNeuronName = "24" weight = "0.857978282894496" />
    <synapse sourceNeuronName = "15" targetNeuronName = "25" weight = "0.8105813497700193" />
    <synapse sourceNeuronName = "15" targetNeuronName = "26" weight = "0.7660929928489786" />
    <synapse sourceNeuronName = "15" targetNeuronName = "27" weight = "0.3882703993545287" />
    <synapse sourceNeuronName = "15" targetNeuronName = "28" weight = "0.8545059427164443" />
    <synapse sourceNeuronName = "15" targetNeuronName = "29" weight = "0.5372919713418528" />
    <synapse sourceNeuronName = "15" targetNeuronName = "30" weight = "0.303477959115496" />
    <synapse sourceNeuronName = "15" targetNeuronName = "31" weight = "0.7342560880839725" />
    <synapse sourceNeuronName = "15" targetNeuronName = "32" weight = "0.3182301782960455" />
    <synapse sourceNeuronName = "15" targetNeuronName = "33" weight = "0.7648190658806904" />
    <synapse sourceNeuronName = "15" targetNeuronName = "34" weight = "0.9252429622164824" />
    <synapse sourceNeuronName = "15" targetNeuronName = "35" weight = "0.12457925452512253" />
    <synapse sourceNeuronName = "15" targetNeuronName = "36" weight = "0.5122221531561304" />
    <synapse sourceNeuronName = "15" targetNeuronName = "37" weight = "0.3371882273932263" />
    <synapse sourceNeuronName = "15" targetNeuronName = "38" weight = "0.536838786153842" />
    <synapse sourceNeuronName = "15" targetNeuronName = "39" weight = "0.43233727627365803" />
    <synapse sourceNeuronName = "15" targetNeuronName = "40" weight = "0.46205437307556085" />
    <synapse sourceNeuronName = "15" targetNeuronName = "41" weight = "0.6128177471337474" />
    <synapse sourceNeuronName = "15" targetNeuronName = "42" weight = "0.7100508305964901" />
    <synapse sourceNeuronName = "15" targetNeuronName = "43" weight = "0.475086379097584" />
    <synapse sourceNeuronName = "15" targetNeuronName = "44" weight = "0.5348984194288604" />
    <synapse sourceNeuronName = "15" targetNeuronName = "45" weight = "0.4356815647385628" />
    <synapse sourceNeuronName = "15" targetNeuronName = "46" weight = "0.35091057567680195" />
    <synapse sourceNeuronName = "15" targetNeuronName = "47" weight = "0.4442878296672762" />
    <synapse sourceNeuronName = "15" targetNeuronName = "48" weight = "0.0089941095422994" />
    <synapse sourceNeuronName = "15" targetNeuronName = "49" weight = "0.24532610731961912" />
    <synapse sourceNeuronName = "15" targetNeuronName = "50" weight = "0.6273660471820587" />
    <synapse sourceNeuronName = "15" targetNeuronName = "51" weight = "0.9704684251003936" />
    <synapse sourceNeuronName = "15" targetNeuronName = "52" weight = "0.08807588676547007" />
    <synapse sourceNeuronName = "15" targetNeuronName = "53" weight = "0.08873123209970202" />
    <synapse sourceNeuronName = "16" targetNeuronName = "0" weight = "0.2286721017481903" />
    <synapse sourceNeuronName = "16" targetNeuronName = "1" weight = "0.6870349866452219" />
    <synapse sourceNeuronName = "16" targetNeuronName = "2" weight = "0.4905649459245235" />
    <synapse sourceNeuronName = "16" targetNeuronName = "3" weight = "0.7804724495501556" />
    <synapse sourceNeuronName = "16" targetNeuronName = "4" weight = "0.17632381995198632" />
    <synapse sourceNeuronName = "16" targetNeuronName = "5" weight = "0.9013862290179293" />
    <synapse sourceNeuronName = "16" targetNeuronName = "6" weight = "0.043305205684327386" />
    <synapse sourceNeuronName = "16" targetNeuronName = "7" weight = "0.5254687433932824" />
    <synapse sourceNeuronName = "16" targetNeuronName = "8" weight = "0.7074692619449745" />
    <synapse sourceNeuronName = "16" targetNeuronName = "9" weight = "0.1372174765614841" />
    <synapse sourceNeuronName = "16" targetNeuronName = "10" weight = "0.788903006163162" />
    <synapse sourceNeuronName = "16" targetNeuronName = "11" weight = "0.28531134497712396" />
    <synapse sourceNeuronName = "16" targetNeuronName = "12" weight = "0.8624873838620448" />
    <synapse sourceNeuronName = "16" targetNeuronName = "13" weight = "0.33056539618947955" />
    <synapse sourceNeuronName = "16" targetNeuronName = "14" weight = "0.5824669066345737" />
    <synapse sourceNeuronName = "16" targetNeuronName = "15" weight = "0.8526038323621488" />
    <synapse sourceNeuronName = "16" targetNeuronName = "16" weight = "0.2165056022326255" />
    <synapse sourceNeuronName = "16" targetNeuronName = "17" weight = "0.591278424230915" />
    <synapse sourceNeuronName = "16" targetNeuronName = "18" weight = "0.6147913208151797" />
    <synapse sourceNeuronName = "16" targetNeuronName = "19" weight = "0.005558026519233317" />
    <synapse sourceNeuronName = "16" targetNeuronName = "20" weight = "0.657399236896741" />
    <synapse sourceNeuronName = "16" targetNeuronName = "21" weight = "0.9672791730642716" />
    <synapse sourceNeuronName = "16" targetNeuronName = "22" weight = "0.5785685932549577" />
    <synapse sourceNeuronName = "16" targetNeuronName = "23" weight = "0.2908372233913863" />
    <synapse sourceNeuronName = "16" targetNeuronName = "24" weight = "0.6580300278546182" />
    <synapse sourceNeuronName = "16" targetNeuronName = "25" weight = "0.6836132953108921" />
    <synapse sourceNeuronName = "16" targetNeuronName = "26" weight = "0.9131075106527542" />
    <synapse sourceNeuronName = "16" targetNeuronName = "27" weight = "0.13157094386676726" />
    <synapse sourceNeuronName = "16" targetNeuronName = "28" weight = "0.7204414876713844" />
    <synapse sourceNeuronName = "16" targetNeuronName = "29" weight = "0.741179326765475" />
    <synapse sourceNeuronName = "16" targetNeuronName = "30" weight = "0.3737506521936542" />
    <synapse sourceNeuronName = "16" targetNeuronName = "31" weight = "0.23510039111419245" />
    <synapse sourceNeuronName = "16" targetNeuronName = "32" weight = "0.5053383383505482" />
    <synapse sourceNeuronName = "16" targetNeuronName = "33" weight = "0.0510178156637322" />
    <synapse sourceNeuronName = "16" targetNeuronName = "34" weight = "0.7158609901284388" />
    <synapse sourceNeuronName = "16" targetNeuronName = "35" weight = "0.5145265912907416" />
    <synapse sourceNeuronName = "16" targetNeuronName = "36" weight = "0.9652940764145224" />
    <synapse sourceNeuronName = "16" targetNeuronName = "37" weight = "0.7993360999075956" />
    <synapse sourceNeuronName = "16" targetNeuronName = "38" weight = "0.3733459320714302" />
    <synapse sourceNeuronName = "16" targetNeuronName = "39" weight = "0.887366967399915" />
    <synapse sourceNeuronName = "16" targetNeuronName = "40" weight = "0.134619432200349" />
    <synapse sourceNeuronName = "16" targetNeuronName = "41" weight = "0.6981664478928592" />
    <synapse sourceNeuronName = "16" targetNeuronName = "42" weight = "0.19505283359417092" />
    <synapse sourceNeuronName = "16" targetNeuronName = "43" weight = "0.7119806074112406" />
    <synapse sourceNeuronName = "16" targetNeuronName = "44" weight = "0.48746831194826734" />
    <synapse sourceNeuronName = "16" targetNeuronName = "45" weight = "0.3307322818228997" />
    <synapse sourceNeuronName = "16" targetNeuronName = "46" weight = "0.3211847488707319" />
    <synapse sourceNeuronName = "16" targetNeuronName = "47" weight = "0.9380438583481151" />
    <synapse sourceNeuronName = "16" targetNeuronName = "48" weight = "0.122167510614559" />
    <synapse sourceNeuronName = "16" targetNeuronName = "49" weight = "0.7943966318830343" />
    <synapse sourceNeuronName = "16" targetNeuronName = "50" weight = "0.6107124627128013" />
    <synapse sourceNeuronName = "16" targetNeuronName = "51" weight = "0.004908258454218273" />
    <synapse sourceNeuronName = "16" targetNeuronName = "52" weight = "0.19006976022437838" />
    <synapse sourceNeuronName = "16" targetNeuronName = "53" weight = "0.0860992095329266" />
    <synapse sourceNeuronName = "17" targetNeuronName = "0" weight = "0.2535487532904146" />
    <synapse sourceNeuronName = "17" targetNeuronName = "1" weight = "0.45759608770724336" />
    <synapse sourceNeuronName = "17" targetNeuronName = "2" weight = "0.0334644928154203" />
    <synapse sourceNeuronName = "17" targetNeuronName = "3" weight = "0.33755003020863583" />
    <synapse sourceNeuronName = "17" targetNeuronName = "4" weight = "0.4603883634773842" />
    <synapse sourceNeuronName = "17" targetNeuronName = "5" weight = "0.2869575103155928" />
    <synapse sourceNeuronName = "17" targetNeuronName = "6" weight = "0.0581181778214489" />
    <synapse sourceNeuronName = "17" targetNeuronName = "7" weight = "0.956262398453861" />
    <synapse sourceNeuronName = "17" targetNeuronName = "8" weight = "0.839470006408544" />
    <synapse sourceNeuronName = "17" targetNeuronName = "9" weight = "0.751561909075851" />
    <synapse sourceNeuronName = "17" targetNeuronName = "10" weight = "0.8585974784200224" />
    <synapse sourceNeuronName = "17" targetNeuronName = "11" weight = "0.3137295964893261" />
    <synapse sourceNeuronName = "17" targetNeuronName = "12" weight = "0.5070185339510397" />
    <synapse sourceNeuronName = "17" targetNeuronName = "13" weight = "0.27119441955190016" />
    <synapse sourceNeuronName = "17" targetNeuronName = "14" weight = "0.35918817789014323" />
    <synapse sourceNeuronName = "17" targetNeuronName = "15" weight = "0.6936666319337942" />
    <synapse sourceNeuronName = "17" targetNeuronName = "16" weight = "0.30223726152784547" />
    <synapse sourceNeuronName = "17" targetNeuronName = "17" weight = "0.8668148083515094" />
    <synapse sourceNeuronName = "17" targetNeuronName = "18" weight = "0.9777147070244664" />
    <synapse sourceNeuronName = "17" targetNeuronName = "19" weight = "0.7693794828945495" />
    <synapse sourceNeuronName = "17" targetNeuronName = "20" weight = "0.9694331985117315" />
    <synapse sourceNeuronName = "17" targetNeuronName = "21" weight = "0.1425152958208078" />
    <synapse sourceNeuronName = "17" targetNeuronName = "22" weight = "0.44946404097319403" />
    <synapse sourceNeuronName = "17" targetNeuronName = "23" weight = "0.4292018044005934" />
    <synapse sourceNeuronName = "17" targetNeuronName = "24" weight = "0.803234808171815" />
    <synapse sourceNeuronName = "17" targetNeuronName = "25" weight = "0.23190400018002533" />
    <synapse sourceNeuronName = "17" targetNeuronName = "26" weight = "0.4465658994095334" />
    <synapse sourceNeuronName = "17" targetNeuronName = "27" weight = "0.6063896313409157" />
    <synapse sourceNeuronName = "17" targetNeuronName = "28" weight = "0.050461687176332926" />
    <synapse sourceNeuronName = "17" targetNeuronName = "29" weight = "0.16544804454087714" />
    <synapse sourceNeuronName = "17" targetNeuronName = "30" weight = "0.04929020441866794" />
    <synapse sourceNeuronName = "17" targetNeuronName = "31" weight = "0.2734807527145886" />
    <synapse sourceNeuronName = "17" targetNeuronName = "32" weight = "0.61024538800429" />
    <synapse sourceNeuronName = "17" targetNeuronName = "33" weight = "0.2229309809987724" />
    <synapse sourceNeuronName = "17" targetNeuronName = "34" weight = "0.0860073385201815" />
    <synapse sourceNeuronName = "17" targetNeuronName = "35" weight = "0.08282933899907541" />
    <synapse sourceNeuronName = "17" targetNeuronName = "36" weight = "0.07901893710530272" />
    <synapse sourceNeuronName = "17" targetNeuronName = "37" weight = "0.8089201436674636" />
    <synapse sourceNeuronName = "17" targetNeuronName = "38" weight = "0.44556755817022486" />
    <synapse sourceNeuronName = "17" targetNeuronName = "39" weight = "0.4297611293888901" />
    <synapse sourceNeuronName = "17" targetNeuronName = "40" weight = "0.7218609795497234" />
    <synapse sourceNeuronName = "17" targetNeuronName = "41" weight = "0.7890098566261876" />
    <synapse sourceNeuronName = "17" targetNeuronName = "42" weight = "0.7378249441404725" />
    <synapse sourceNeuronName = "17" targetNeuronName = "43" weight = "0.46470366471324975" />
    <synapse sourceNeuronName = "17" targetNeuronName = "44" weight = "0.6843120770868595" />
    <synapse sourceNeuronName = "17" targetNeuronName = "45" weight = "0.3699127447153109" />
    <synapse sourceNeuronName = "17" targetNeuronName = "46" weight = "0.5698356084946863" />
    <synapse sourceNeuronName = "17" targetNeuronName = "47" weight = "0.6600902364478226" />
    <synapse sourceNeuronName = "17" targetNeuronName = "48" weight = "0.25974212672083097" />
    <synapse sourceNeuronName = "17" targetNeuronName = "49" weight = "0.29736907023555814" />
    <synapse sourceNeuronName = "17" targetNeuronName = "50" weight = "0.2301169573638875" />
    <synapse sourceNeuronName = "17" targetNeuronName = "51" weight = "0.08624694937530097" />
    <synapse sourceNeuronName = "17" targetNeuronName = "52" weight = "0.7213335757348779" />
    <synapse sourceNeuronName = "17" targetNeuronName = "53" weight = "0.5116353412541527" />
    <synapse sourceNeuronName = "18" targetNeuronName = "0" weight = "0.39045684096695976" />
    <synapse sourceNeuronName = "18" targetNeuronName = "1" weight = "0.37493807273258384" />
    <synapse sourceNeuronName = "18" targetNeuronName = "2" weight = "0.5344545102077116" />
    <synapse sourceNeuronName = "18" targetNeuronName = "3" weight = "0.19319584857848549" />
    <synapse sourceNeuronName = "18" targetNeuronName = "4" weight = "0.34537112404533" />
    <synapse sourceNeuronName = "18" targetNeuronName = "5" weight = "0.38911061814723924" />
    <synapse sourceNeuronName = "18" targetNeuronName = "6" weight = "0.9627766089219776" />
    <synapse sourceNeuronName = "18" targetNeuronName = "7" weight = "0.6881493376716268" />
    <synapse sourceNeuronName = "18" targetNeuronName = "8" weight = "0.8767131241416386" />
    <synapse sourceNeuronName = "18" targetNeuronName = "9" weight = "0.9587032373705411" />
    <synapse sourceNeuronName = "18" targetNeuronName = "10" weight = "0.39591902692744385" />
    <synapse sourceNeuronName = "18" targetNeuronName = "11" weight = "0.38743084856994436" />
    <synapse sourceNeuronName = "18" targetNeuronName = "12" weight = "0.7768657817047572" />
    <synapse sourceNeuronName = "18" targetNeuronName = "13" weight = "0.7703558930557673" />
    <synapse sourceNeuronName = "18" targetNeuronName = "14" weight = "0.7113651299692053" />
    <synapse sourceNeuronName = "18" targetNeuronName = "15" weight = "0.6704533450521285" />
    <synapse sourceNeuronName = "18" targetNeuronName = "16" weight = "0.6514432733515482" />
    <synapse sourceNeuronName = "18" targetNeuronName = "17" weight = "0.7104148240091155" />
    <synapse sourceNeuronName = "18" targetNeuronName = "18" weight = "0.1208368096627439" />
    <synapse sourceNeuronName = "18" targetNeuronName = "19" weight = "0.869255128833461" />
    <synapse sourceNeuronName = "18" targetNeuronName = "20" weight = "0.5448575748051209" />
    <synapse sourceNeuronName = "18" targetNeuronName = "21" weight = "0.7313225619398205" />
    <synapse sourceNeuronName = "18" targetNeuronName = "22" weight = "0.09517514808332994" />
    <synapse sourceNeuronName = "18" targetNeuronName = "23" weight = "0.3225387735156088" />
    <synapse sourceNeuronName = "18" targetNeuronName = "24" weight = "0.07246912050478604" />
    <synapse sourceNeuronName = "18" targetNeuronName = "25" weight = "0.9589631285808239" />
    <synapse sourceNeuronName = "18" targetNeuronName = "26" weight = "0.15388024329620387" />
    <synapse sourceNeuronName = "18" targetNeuronName = "27" weight = "0.3810430023380367" />
    <synapse sourceNeuronName = "18" targetNeuronName = "28" weight = "0.19186923935553368" />
    <synapse sourceNeuronName = "18" targetNeuronName = "29" weight = "0.5600133248869686" />
    <synapse sourceNeuronName = "18" targetNeuronName = "30" weight = "0.7535070947612289" />
    <synapse sourceNeuronName = "18" targetNeuronName = "31" weight = "0.037670994975672834" />
    <synapse sourceNeuronName = "18" targetNeuronName = "32" weight = "0.48499211910007123" />
    <synapse sourceNeuronName = "18" targetNeuronName = "33" weight = "0.7849254866548582" />
    <synapse sourceNeuronName = "18" targetNeuronName = "34" weight = "0.10512573781446022" />
    <synapse sourceNeuronName = "18" targetNeuronName = "35" weight = "0.33691030565834823" />
    <synapse sourceNeuronName = "18" targetNeuronName = "36" weight = "0.1679421950513479" />
    <synapse sourceNeuronName = "18" targetNeuronName = "37" weight = "0.5236557062256205" />
    <synapse sourceNeuronName = "18" targetNeuronName = "38" weight = "0.9730363423902204" />
    <synapse sourceNeuronName = "18" targetNeuronName = "39" weight = "0.38129657440741005" />
    <synapse sourceNeuronName = "18" targetNeuronName = "40" weight = "0.5688686484552554" />
    <synapse sourceNeuronName = "18" targetNeuronName = "41" weight = "0.069364369306537" />
    <synapse sourceNeuronName = "18" targetNeuronName = "42" weight = "0.6328839415385261" />
    <synapse sourceNeuronName = "18" targetNeuronName = "43" weight = "0.430209720098817" />
    <synapse sourceNeuronName = "18" targetNeuronName = "44" weight = "0.8949798813152657" />
